0 128
1 0
2 0
3 0
4 0
5 0
6 0
7 0
8 0
9 0
10 0
11 0
12 0
13 0
14 0
15 0
16 0
17 0
18 0
19 0
20 0
21 0
22 0
23 0
24 0
25 0
26 0
27 0
28 0
29 0
30 0
31 0
32 0
33 0
34 0
35 0
36 0
37 0
38 0
39 0
40 0
41 0
42 0
43 0
44 0
45 0
46 0
47 0
48 0
49 0
50 0
51 0
52 0
53 0
54 0
55 0
56 0
57 0
58 0
59 0
60 0
61 0
62 0
63 0
64 0
65 0
66 0
67 0
68 0
69 0
70 0
71 0
72 0
73 0
74 0
75 0
76 0
77 0
78 0
79 0
80 0
81 0
82 0
83 0
84 0
85 0
86 0
87 0
88 0
89 0
90 0
91 0
92 0
93 0
94 0
95 0
96 0
97 0
98 0
99 0
100 0
101 0
102 0
103 0
104 0
105 0
106 0
107 0
108 0
109 0
110 0
111 0
112 0
113 0
114 0
115 0
116 0
117 0
118 0
119 0
120 0
121 0
122 0
123 0
124 0
125 0
126 0
127 0
128 0
129 0
130 0
131 0
132 0
133 0
134 0
135 0
136 0
137 0
138 0
139 0
140 0
141 0
142 0
143 0
144 0
145 0
146 0
147 0
148 0
149 0
150 0
151 0
152 0
153 0
154 0
155 0
156 0
157 0
158 0
159 0
160 0
161 0
162 0
163 0
164 0
165 0
166 0
167 0
168 0
169 0
170 0
171 0
172 0
173 0
174 0
175 0
176 0
177 0
178 0
179 0
180 0
181 0
182 0
183 0
184 0
185 0
186 0
187 0
188 0
189 0
190 0
191 0
192 0
193 0
194 0
195 0
196 0
197 0
198 0
199 0
200 0
201 0
202 0
203 0
204 0
205 0
206 0
207 0
208 0
209 0
210 0
211 0
212 0
213 0
214 0
215 0
216 0
217 0
218 0
219 0
220 0
221 0
222 0
223 0
224 0
225 0
226 0
227 0
228 0
229 0
230 0
231 0
232 0
233 0
234 0
235 0
236 0
237 0
238 0
239 0
240 0
241 0
242 0
243 0
244 0
245 0
246 0
247 0
248 0
249 0
250 0
251 0
252 0
253 0
254 0
255 0
256 0
257 -4
258 -4
259 8
260 -12
261 0
262 -8
263 -4
264 -8
265 0
266 12
267 -4
268 8
269 0
270 -12
271 12
272 14
273 -2
274 10
275 2
276 10
277 2
278 -2
279 6
280 2
281 6
282 14
283 2
284 10
285 6
286 14
287 -14
288 16
289 8
290 0
291 8
292 12
293 12
294 -12
295 -4
296 -8
297 -12
298 8
299 -4
300 -16
301 -12
302 8
303 12
304 10
305 -10
306 2
307 -10
308 -10
309 2
310 6
311 -14
312 -2
313 6
314 -2
315 6
316 6
317 -2
318 -2
319 -2
320 -12
321 8
322 8
323 12
324 12
325 8
326 -8
327 -4
328 0
329 -8
330 12
331 -4
332 12
333 12
334 0
335 0
336 2
337 2
338 -2
339 6
340 2
341 2
342 6
343 6
344 10
345 -10
346 6
347 -14
348 -2
349 -6
350 2
351 6
352 -12
353 12
354 4
355 12
356 -4
357 -12
358 -12
359 4
360 -8
361 12
362 8
363 4
364 4
365 -8
366 12
367 0
368 6
369 10
370 -10
371 2
372 -2
373 -6
374 -10
375 2
376 -10
377 14
378 -2
379 6
380 2
381 2
382 -14
383 -6
384 -12
385 -4
386 12
387 -4
388 16
389 0
390 -8
391 8
392 -16
393 4
394 0
395 -12
396 -8
397 4
398 8
399 -4
400 2
401 -2
402 10
403 6
404 -2
405 -6
406 6
407 -6
408 2
409 -14
410 10
411 2
412 -6
413 10
414 2
415 2
416 12
417 -8
418 -8
419 -4
420 16
421 12
422 12
423 8
424 8
425 -8
426 4
427 -12
428 -8
429 8
430 -12
431 -4
432 6
433 6
434 -6
435 10
436 2
437 10
438 6
439 6
440 6
441 2
442 2
443 6
444 14
445 -14
446 -6
447 -2
448 12
449 4
450 4
451 4
452 -4
453 -12
454 -12
455 -4
456 12
457 -8
458 -4
459 -8
460 0
461 -4
462 0
463 4
464 -6
465 -2
466 -6
467 -2
468 10
469 6
470 -6
471 -2
472 14
473 14
474 -2
475 -10
476 2
477 -6
478 2
479 10
480 -4
481 0
482 0
483 -4
484 -4
485 8
486 0
487 -4
488 4
489 -12
490 -8
491 -8
492 -8
493 0
494 -4
495 -4
496 14
497 -2
498 2
499 2
500 6
501 -10
502 -6
503 -14
504 10
505 -2
506 -10
507 2
508 6
509 -6
510 -14
511 6
512 0
513 4
514 -12
515 8
516 -8
517 -12
518 8
519 12
520 6
521 -10
522 2
523 2
524 -2
525 14
526 -10
527 14
528 16
529 0
530 12
531 12
532 -4
533 -12
534 12
535 -4
536 -2
537 10
538 -14
539 -2
540 2
541 -2
542 -6
543 -2
544 -12
545 -8
546 12
547 8
548 0
549 -12
550 12
551 0
552 -2
553 -2
554 -2
555 6
556 10
557 -14
558 -2
559 -10
560 -8
561 -8
562 -8
563 -16
564 -8
565 -8
566 4
567 -12
568 -6
569 -10
570 2
571 -10
572 2
573 -10
574 6
575 10
576 -4
577 -12
578 0
579 0
580 16
581 0
582 8
583 8
584 2
585 -10
586 -2
587 -6
588 6
589 -6
590 6
591 10
592 -8
593 -4
594 -4
595 8
596 -8
597 4
598 8
599 -12
600 6
601 6
602 2
603 -6
604 -2
605 14
606 6
607 6
608 -12
609 4
610 4
611 -12
612 12
613 12
614 -8
615 -16
616 -10
617 2
618 -2
619 -6
620 14
621 2
622 2
623 -2
624 4
625 0
626 4
627 0
628 -8
629 -12
630 12
631 -16
632 -2
633 6
634 6
635 14
636 10
637 10
638 6
639 14
640 4
641 -8
642 0
643 12
644 0
645 4
646 0
647 -12
648 2
649 2
650 -2
651 6
652 6
653 -2
654 6
655 -2
656 -4
657 12
658 0
659 -8
660 -12
661 4
662 -12
663 -12
664 10
665 -10
666 -2
667 -14
668 2
669 -10
670 2
671 6
672 8
673 -12
674 8
675 4
676 -8
677 -4
678 4
679 0
680 2
681 -6
682 -14
683 -6
684 10
685 -14
686 6
687 6
688 12
689 -12
690 -12
691 -4
692 -8
693 8
694 4
695 12
696 6
697 -6
698 -2
699 2
700 -14
701 6
702 -2
703 -6
704 4
705 -4
706 0
707 8
708 4
709 -4
710 -4
711 12
712 10
713 14
714 -10
715 -6
716 -14
717 -2
718 10
719 -2
720 8
721 -4
722 -12
723 8
724 -4
725 0
726 -4
727 -8
728 -2
729 -2
730 -6
731 -6
732 2
733 -6
734 -14
735 2
736 -12
737 -4
738 -4
739 -4
740 8
741 -8
742 4
743 4
744 -2
745 2
746 6
747 2
748 -6
749 -2
750 6
751 -6
752 -12
753 8
754 -4
755 -8
756 12
757 -8
758 0
759 -4
760 -2
761 -2
762 -10
763 14
764 -10
765 6
766 -6
767 10
768 0
769 -8
770 8
771 0
772 -8
773 -8
774 12
775 12
776 -2
777 -2
778 -2
779 6
780 10
781 -6
782 -10
783 -2
784 10
785 10
786 -6
787 2
788 -10
789 6
790 -6
791 2
792 4
793 -12
794 4
795 4
796 12
797 4
798 0
799 8
800 -8
801 -12
802 -16
803 -12
804 -4
805 0
806 8
807 -12
808 10
809 6
810 -14
811 -2
812 2
813 -2
814 -2
815 -6
816 -14
817 6
818 10
819 14
820 2
821 6
822 6
823 10
824 0
825 -4
826 0
827 -12
828 12
829 0
830 -8
831 4
832 0
833 4
834 -8
835 4
836 0
837 4
838 -4
839 8
840 -14
841 -10
842 2
843 6
844 -2
845 10
846 2
847 -2
848 -2
849 2
850 14
851 2
852 -6
853 6
854 -10
855 2
856 -4
857 -8
858 -4
859 0
860 12
861 8
862 8
863 12
864 12
865 4
866 -12
867 12
868 0
869 -8
870 4
871 -4
872 2
873 2
874 -6
875 -14
876 2
877 -6
878 6
879 6
880 2
881 -6
882 -6
883 -6
884 -6
885 -6
886 6
887 -2
888 4
889 -4
890 4
891 -4
892 16
893 -8
894 -12
895 -4
896 -8
897 -12
898 4
899 0
900 4
901 -8
902 12
903 -16
904 -14
905 -10
906 -2
907 -6
908 10
909 -2
910 -14
911 -2
912 2
913 -10
914 6
915 -14
916 -14
917 6
918 -6
919 6
920 -8
921 -4
922 4
923 -8
924 -4
925 8
926 12
927 -8
928 0
929 0
930 -4
931 4
932 -8
933 16
934 -8
935 8
936 -10
937 6
938 10
939 -6
940 10
941 -6
942 2
943 -14
944 2
945 -6
946 -2
947 -10
948 6
949 -2
950 -2
951 -10
952 4
953 -12
954 0
955 8
956 12
957 -12
958 4
959 -12
960 -8
961 8
962 -4
963 -12
964 4
965 -12
966 -4
967 4
968 -2
969 14
970 2
971 2
972 -2
973 6
974 6
975 -2
976 -10
977 -10
978 2
979 2
980 14
981 -10
982 -10
983 -2
984 -8
985 16
986 12
987 12
988 12
989 -12
990 12
991 12
992 4
993 8
994 8
995 12
996 -12
997 -8
998 4
999 -8
1000 6
1001 2
1002 2
1003 6
1004 -6
1005 -2
1006 -14
1007 -2
1008 -14
1009 -10
1010 6
1011 2
1012 6
1013 -14
1014 -2
1015 2
1016 0
1017 -12
1018 -12
1019 8
1020 0
1021 -12
1022 8
1023 12
1024 0
1025 12
1026 -8
1027 -8
1028 0
1029 -4
1030 -8
1031 16
1032 2
1033 -6
1034 6
1035 2
1036 2
1037 -14
1038 -2
1039 -6
1040 -12
1041 -12
1042 0
1043 -12
1044 -4
1045 -12
1046 8
1047 12
1048 6
1049 2
1050 6
1051 -10
1052 6
1053 2
1054 -2
1055 6
1056 -2
1057 6
1058 10
1059 -2
1060 2
1061 2
1062 6
1063 -6
1064 8
1065 -4
1066 8
1067 8
1068 12
1069 -16
1070 12
1071 4
1072 2
1073 -2
1074 2
1075 10
1076 -10
1077 2
1078 14
1079 -2
1080 -4
1081 4
1082 8
1083 12
1084 -8
1085 8
1086 4
1087 8
1088 -10
1089 -10
1090 10
1091 14
1092 -2
1093 -2
1094 -6
1095 6
1096 -4
1097 0
1098 -12
1099 12
1100 12
1101 8
1102 4
1103 -4
1104 6
1105 2
1106 6
1107 6
1108 -2
1109 -14
1110 -10
1111 6
1112 12
1113 12
1114 -8
1115 -4
1116 4
1117 -12
1118 0
1119 12
1120 -4
1121 0
1122 -4
1123 -4
1124 0
1125 -4
1126 0
1127 0
1128 2
1129 10
1130 -2
1131 2
1132 -2
1133 6
1134 2
1135 14
1136 12
1137 -4
1138 -8
1139 4
1140 8
1141 -8
1142 4
1143 8
1144 2
1145 6
1146 2
1147 -14
1148 -2
1149 10
1150 -10
1151 6
1152 6
1153 -10
1154 -10
1155 -6
1156 -10
1157 -2
1158 14
1159 -14
1160 0
1161 12
1162 12
1163 -4
1164 8
1165 4
1166 -12
1167 -4
1168 6
1169 2
1170 2
1171 2
1172 -2
1173 -6
1174 -14
1175 10
1176 8
1177 -16
1178 8
1179 -12
1180 0
1181 0
1182 -16
1183 12
1184 -12
1185 0
1186 0
1187 -8
1188 -8
1189 4
1190 -12
1191 -12
1192 -2
1193 -10
1194 -2
1195 2
1196 -6
1197 -6
1198 -14
1199 6
1200 4
1201 12
1202 12
1203 16
1204 -8
1205 -8
1206 0
1207 -12
1208 -10
1209 10
1210 10
1211 10
1212 -6
1213 14
1214 -10
1215 14
1216 8
1217 12
1218 -4
1219 -12
1220 8
1221 4
1222 12
1223 4
1224 6
1225 -2
1226 -2
1227 -6
1228 -10
1229 14
1230 -10
1231 -6
1232 12
1233 4
1234 4
1235 0
1236 -4
1237 4
1238 4
1239 8
1240 -14
1241 -2
1242 -10
1243 6
1244 -6
1245 -2
1246 6
1247 6
1248 6
1249 -2
1250 -2
1251 2
1252 -14
1253 -6
1254 2
1255 -2
1256 -4
1257 -8
1258 0
1259 8
1260 8
1261 12
1262 12
1263 4
1264 -6
1265 6
1266 6
1267 14
1268 -2
1269 2
1270 2
1271 -6
1272 8
1273 8
1274 -8
1275 4
1276 4
1277 -12
1278 -12
1279 8
1280 0
1281 0
1282 -12
1283 -8
1284 -4
1285 -4
1286 0
1287 4
1288 14
1289 -2
1290 6
1291 2
1292 -10
1293 -2
1294 6
1295 10
1296 -14
1297 -14
1298 -6
1299 6
1300 6
1301 6
1302 -2
1303 -6
1304 -12
1305 -4
1306 0
1307 -4
1308 -4
1309 12
1310 16
1311 -12
1312 14
1313 6
1314 2
1315 6
1316 -2
1317 6
1318 -6
1319 -2
1320 -4
1321 -4
1322 -12
1323 8
1324 8
1325 0
1326 0
1327 12
1328 -4
1329 -12
1330 12
1331 -8
1332 -12
1333 12
1334 -4
1335 8
1336 14
1337 6
1338 2
1339 -10
1340 10
1341 -6
1342 -2
1343 -6
1344 2
1345 -10
1346 10
1347 2
1348 2
1349 -2
1350 2
1351 -14
1352 8
1353 12
1354 12
1355 12
1356 -12
1357 8
1358 -8
1359 8
1360 0
1361 -12
1362 12
1363 12
1364 0
1365 12
1366 -12
1367 12
1368 -6
1369 6
1370 -14
1371 2
1372 -2
1373 -6
1374 -10
1375 6
1376 0
1377 -4
1378 8
1379 16
1380 4
1381 8
1382 -4
1383 12
1384 6
1385 10
1386 -6
1387 2
1388 6
1389 10
1390 2
1391 -6
1392 2
1393 14
1394 6
1395 6
1396 -10
1397 10
1398 10
1399 2
1400 -4
1401 -8
1402 -4
1403 4
1404 4
1405 16
1406 -4
1407 -12
1408 2
1409 2
1410 -6
1411 6
1412 -2
1413 14
1414 6
1415 -14
1416 -4
1417 -4
1418 8
1419 -4
1420 12
1421 -12
1422 -16
1423 12
1424 8
1425 0
1426 12
1427 8
1428 -12
1429 -4
1430 -8
1431 4
1432 6
1433 -10
1434 14
1435 10
1436 -2
1437 6
1438 -2
1439 2
1440 -8
1441 8
1442 -8
1443 12
1444 -8
1445 -8
1446 0
1447 4
1448 10
1449 2
1450 -2
1451 2
1452 14
1453 -2
1454 2
1455 14
1456 10
1457 2
1458 -2
1459 -14
1460 -6
1461 -14
1462 -10
1463 -6
1464 0
1465 -8
1466 -8
1467 -12
1468 12
1469 -4
1470 -12
1471 8
1472 -4
1473 -8
1474 8
1475 0
1476 -12
1477 -8
1478 -8
1479 -8
1480 -2
1481 10
1482 6
1483 6
1484 -6
1485 -10
1486 2
1487 2
1488 6
1489 -6
1490 -2
1491 6
1492 -10
1493 2
1494 6
1495 -10
1496 12
1497 -8
1498 0
1499 -8
1500 8
1501 4
1502 12
1503 -12
1504 -14
1505 -2
1506 6
1507 6
1508 -2
1509 2
1510 2
1511 10
1512 -4
1513 0
1514 -4
1515 12
1516 -4
1517 -16
1518 4
1519 4
1520 0
1521 4
1522 -8
1523 8
1524 4
1525 0
1526 -4
1527 4
1528 -2
1529 2
1530 2
1531 10
1532 -2
1533 2
1534 10
1535 2
1536 0
1537 -8
1538 -8
1539 -12
1540 8
1541 0
1542 4
1543 0
1544 -4
1545 4
1546 8
1547 -12
1548 -4
1549 4
1550 -12
1551 0
1552 -8
1553 16
1554 -4
1555 -8
1556 12
1557 12
1558 -4
1559 0
1560 4
1561 -4
1562 -12
1563 -16
1564 0
1565 0
1566 -12
1567 -8
1568 2
1569 -2
1570 10
1571 10
1572 -14
1573 -2
1574 -2
1575 -2
1576 2
1577 14
1578 6
1579 -10
1580 -6
1581 -10
1582 -6
1583 10
1584 14
1585 10
1586 2
1587 2
1588 2
1589 6
1590 2
1591 -6
1592 -2
1593 -6
1594 6
1595 6
1596 10
1597 14
1598 6
1599 -2
1600 2
1601 2
1602 6
1603 2
1604 14
1605 -2
1606 -10
1607 -14
1608 2
1609 -6
1610 -14
1611 6
1612 -2
1613 -10
1614 10
1615 14
1616 2
1617 -6
1618 -14
1619 6
1620 10
1621 10
1622 -10
1623 2
1624 2
1625 2
1626 6
1627 2
1628 -6
1629 -14
1630 2
1631 6
1632 8
1633 -4
1634 -4
1635 -4
1636 4
1637 8
1638 12
1639 -4
1640 -4
1641 -8
1642 -12
1643 -4
1644 -8
1645 -12
1646 12
1647 -12
1648 -4
1649 8
1650 12
1651 4
1652 -4
1653 0
1654 -8
1655 8
1656 0
1657 4
1658 -4
1659 12
1660 0
1661 12
1662 0
1663 -8
1664 -6
1665 -10
1666 2
1667 10
1668 -2
1669 -6
1670 -6
1671 2
1672 -10
1673 2
1674 -6
1675 2
1676 2
1677 -2
1678 2
1679 -6
1680 14
1681 2
1682 -6
1683 -6
1684 6
1685 2
1686 -2
1687 6
1688 -6
1689 14
1690 -6
1691 10
1692 -6
1693 6
1694 -2
1695 6
1696 4
1697 -4
1698 4
1699 -8
1700 0
1701 -8
1702 -12
1703 -8
1704 4
1705 12
1706 8
1707 -4
1708 8
1709 0
1710 -8
1711 12
1712 4
1713 -12
1714 -8
1715 4
1716 12
1717 -12
1718 12
1719 0
1720 -12
1721 4
1722 4
1723 0
1724 4
1725 -4
1726 8
1727 -4
1728 12
1729 0
1730 8
1731 -16
1732 -12
1733 -8
1734 4
1735 12
1736 -12
1737 16
1738 -12
1739 -12
1740 -4
1741 8
1742 8
1743 8
1744 0
1745 4
1746 -16
1747 8
1748 12
1749 -8
1750 -8
1751 8
1752 -8
1753 -12
1754 -12
1755 -12
1756 -12
1757 -8
1758 -12
1759 12
1760 -6
1761 10
1762 -2
1763 2
1764 -14
1765 2
1766 -6
1767 -2
1768 -10
1769 -2
1770 -10
1771 2
1772 14
1773 -10
1774 -6
1775 6
1776 -6
1777 -6
1778 -14
1779 6
1780 -2
1781 6
1782 2
1783 -2
1784 -10
1785 -2
1786 -14
1787 -2
1788 10
1789 -6
1790 10
1791 -2
1792 0
1793 -4
1794 -12
1795 -12
1796 -16
1797 -4
1798 0
1799 8
1800 0
1801 0
1802 8
1803 -12
1804 12
1805 12
1806 -8
1807 12
1808 2
1809 2
1810 -14
1811 14
1812 6
1813 -10
1814 -6
1815 -2
1816 -2
1817 10
1818 2
1819 2
1820 -2
1821 -6
1822 14
1823 6
1824 -2
1825 2
1826 -10
1827 14
1828 6
1829 2
1830 -6
1831 2
1832 10
1833 -6
1834 6
1835 2
1836 14
1837 6
1838 -2
1839 10
1840 0
1841 8
1842 12
1843 0
1844 12
1845 -4
1846 12
1847 0
1848 -8
1849 4
1850 -8
1851 -8
1852 -16
1853 4
1854 -4
1855 12
1856 -2
1857 2
1858 -2
1859 -2
1860 6
1861 2
1862 -14
1863 2
1864 -10
1865 -2
1866 -14
1867 14
1868 -6
1869 -6
1870 -6
1871 -10
1872 0
1873 -8
1874 4
1875 16
1876 -4
1877 -4
1878 4
1879 -16
1880 4
1881 8
1882 4
1883 4
1884 -4
1885 -8
1886 -8
1887 -8
1888 -8
1889 12
1890 -12
1891 4
1892 8
1893 12
1894 0
1895 -8
1896 4
1897 -12
1898 -4
1899 16
1900 0
1901 0
1902 -4
1903 8
1904 2
1905 10
1906 -6
1907 -10
1908 6
1909 -2
1910 2
1911 6
1912 -6
1913 -10
1914 -2
1915 6
1916 -6
1917 -10
1918 10
1919 -6
1920 6
1921 -6
1922 6
1923 14
1924 -6
1925 6
1926 -2
1927 6
1928 -6
1929 -14
1930 6
1931 10
1932 10
1933 10
1934 2
1935 6
1936 4
1937 -12
1938 -8
1939 -12
1940 -4
1941 4
1942 12
1943 8
1944 -4
1945 -8
1946 12
1947 -4
1948 0
1949 -12
1950 -12
1951 -12
1952 12
1953 -8
1954 -8
1955 8
1956 8
1957 -12
1958 8
1959 0
1960 -4
1961 -12
1962 -12
1963 -8
1964 4
1965 12
1966 8
1967 -12
1968 2
1969 10
1970 -6
1971 -2
1972 2
1973 -6
1974 -10
1975 -14
1976 -10
1977 2
1978 -6
1979 -6
1980 2
1981 -2
1982 -6
1983 2
1984 -8
1985 12
1986 -12
1987 4
1988 -12
1989 8
1990 4
1991 -4
1992 -4
1993 -12
1994 -4
1995 -8
1996 -12
1997 12
1998 0
1999 -12
2000 -2
2001 -2
2002 -10
2003 10
2004 -2
2005 14
2006 -14
2007 -2
2008 -10
2009 2
2010 2
2011 -6
2012 2
2013 14
2014 2
2015 -14
2016 2
2017 6
2018 2
2019 2
2020 6
2021 2
2022 -6
2023 -6
2024 10
2025 10
2026 -2
2027 -14
2028 10
2029 2
2030 -6
2031 -2
2032 8
2033 -8
2034 -4
2035 0
2036 0
2037 8
2038 0
2039 4
2040 -12
2041 -8
2042 -4
2043 -4
2044 8
2045 -12
2046 4
2047 4
2048 0
2049 8
2050 0
2051 8
2052 -10
2053 -10
2054 6
2055 -2
2056 -8
2057 -12
2058 0
2059 -4
2060 -6
2061 6
2062 -6
2063 -2
2064 -2
2065 -10
2066 2
2067 -6
2068 4
2069 -4
2070 0
2071 0
2072 2
2073 -2
2074 -10
2075 2
2076 4
2077 8
2078 8
2079 4
2080 -6
2081 2
2082 2
2083 2
2084 -4
2085 12
2086 12
2087 -4
2088 -6
2089 6
2090 2
2091 -10
2092 0
2093 12
2094 8
2095 4
2096 -8
2097 8
2098 -12
2099 12
2100 2
2101 2
2102 -2
2103 -2
2104 -12
2105 -8
2106 -8
2107 4
2108 2
2109 -2
2110 14
2111 10
2112 -2
2113 -6
2114 -10
2115 10
2116 0
2117 12
2118 -8
2119 -12
2120 6
2121 -2
2122 -2
2123 14
2124 -4
2125 12
2126 -4
2127 -4
2128 0
2129 4
2130 12
2131 -8
2132 2
2133 -2
2134 6
2135 -14
2136 4
2137 -12
2138 -8
2139 0
2140 -6
2141 -6
2142 -2
2143 -2
2144 -8
2145 -4
2146 -8
2147 12
2148 -10
2149 -6
2150 14
2151 10
2152 -8
2153 8
2154 16
2155 0
2156 -14
2157 10
2158 -6
2159 -6
2160 -6
2161 -2
2162 14
2163 2
2164 0
2165 12
2166 -12
2167 8
2168 -10
2169 -10
2170 10
2171 -6
2172 8
2173 8
2174 4
2175 12
2176 -12
2177 0
2178 4
2179 8
2180 -6
2181 -2
2182 -14
2183 6
2184 12
2185 -12
2186 12
2187 12
2188 6
2189 -2
2190 6
2191 14
2192 -2
2193 10
2194 -14
2195 6
2196 -4
2197 -8
2198 -16
2199 -4
2200 2
2201 10
2202 -2
2203 -2
2204 4
2205 4
2206 8
2207 8
2208 -10
2209 -14
2210 -2
2211 -6
2212 8
2213 12
2214 -16
2215 -4
2216 -10
2217 -2
2218 6
2219 -2
2220 -12
2221 -4
2222 12
2223 12
2224 0
2225 4
2226 -4
2227 0
2228 2
2229 6
2230 6
2231 2
2232 12
2233 -4
2234 8
2235 -8
2236 -6
2237 -14
2238 -10
2239 6
2240 10
2241 -6
2242 2
2243 -14
2244 -12
2245 -12
2246 4
2247 -4
2248 -6
2249 -2
2250 -6
2251 -2
2252 -16
2253 12
2254 0
2255 -12
2256 0
2257 -8
2258 -4
2259 -12
2260 2
2261 2
2262 -2
2263 6
2264 -4
2265 8
2266 -8
2267 -12
2268 10
2269 -10
2270 14
2271 -14
2272 -4
2273 -12
2274 -4
2275 -4
2276 2
2277 -6
2278 -14
2279 -6
2280 4
2281 0
2282 4
2283 -8
2284 -2
2285 2
2286 -10
2287 -6
2288 2
2289 10
2290 6
2291 6
2292 8
2293 8
2294 -12
2295 4
2296 6
2297 -14
2298 2
2299 6
2300 -16
2301 12
2302 12
2303 -8
2304 0
2305 12
2306 0
2307 -4
2308 -14
2309 -2
2310 2
2311 -2
2312 4
2313 8
2314 4
2315 -16
2316 6
2317 2
2318 14
2319 2
2320 0
2321 0
2322 -12
2323 -4
2324 2
2325 2
2326 -2
2327 -10
2328 -12
2329 -12
2330 -8
2331 -8
2332 6
2333 -2
2334 10
2335 2
2336 -6
2337 -6
2338 14
2339 -10
2340 0
2341 8
2342 -4
2343 12
2344 6
2345 6
2346 10
2347 10
2348 4
2349 4
2350 -8
2351 8
2352 -2
2353 10
2354 -2
2355 -6
2356 4
2357 -8
2358 4
2359 -8
2360 10
2361 14
2362 -6
2363 6
2364 8
2365 12
2366 0
2367 12
2368 -6
2369 -14
2370 10
2371 -6
2372 12
2373 -12
2374 -4
2375 12
2376 10
2377 -6
2378 2
2379 -14
2380 12
2381 -12
2382 -4
2383 4
2384 6
2385 2
2386 2
2387 -2
2388 -8
2389 4
2390 -4
2391 8
2392 -10
2393 -14
2394 -6
2395 -2
2396 -8
2397 12
2398 -4
2399 8
2400 12
2401 -8
2402 -8
2403 -12
2404 -6
2405 -2
2406 -2
2407 2
2408 -4
2409 8
2410 0
2411 4
2412 2
2413 14
2414 6
2415 10
2416 4
2417 12
2418 -12
2419 4
2420 -14
2421 -14
2422 2
2423 10
2424 -12
2425 -12
2426 12
2427 -4
2428 -6
2429 -6
2430 -6
2431 -6
2432 -8
2433 4
2434 -12
2435 0
2436 10
2437 -2
2438 -10
2439 -6
2440 -8
2441 -12
2442 12
2443 0
2444 -14
2445 -2
2446 -2
2447 2
2448 -4
2449 12
2450 12
2451 4
2452 -2
2453 6
2454 6
2455 -10
2456 -12
2457 12
2458 12
2459 4
2460 -2
2461 -10
2462 -10
2463 -2
2464 -6
2465 2
2466 -6
2467 -6
2468 0
2469 8
2470 -8
2471 8
2472 2
2473 2
2474 -6
2475 10
2476 -8
2477 0
2478 0
2479 -8
2480 2
2481 -10
2482 -2
2483 2
2484 -8
2485 -4
2486 -12
2487 8
2488 -14
2489 6
2490 6
2491 2
2492 -8
2493 4
2494 4
2495 8
2496 -2
2497 -2
2498 2
2499 -6
2500 -8
2501 -16
2502 -4
2503 12
2504 -14
2505 2
2506 -10
2507 6
2508 4
2509 4
2510 16
2511 0
2512 -10
2513 -6
2514 6
2515 -6
2516 0
2517 12
2518 8
2519 -12
2520 -14
2521 -2
2522 2
2523 6
2524 -12
2525 0
2526 4
2527 8
2528 16
2529 -4
2530 0
2531 -4
2532 6
2533 2
2534 -2
2535 10
2536 4
2537 8
2538 -12
2539 -16
2540 -6
2541 6
2542 10
2543 -2
2544 4
2545 -4
2546 8
2547 -8
2548 -6
2549 -14
2550 -2
2551 -2
2552 0
2553 -8
2554 -12
2555 12
2556 -10
2557 6
2558 2
2559 -14
2560 0
2561 12
2562 -4
2563 0
2564 -10
2565 2
2566 -2
2567 2
2568 -14
2569 6
2570 -10
2571 2
2572 12
2573 0
2574 4
2575 16
2576 14
2577 -2
2578 -2
2579 6
2580 -8
2581 0
2582 4
2583 4
2584 -4
2585 4
2586 -4
2587 -4
2588 -14
2589 2
2590 -10
2591 -2
2592 -6
2593 14
2594 -6
2595 -10
2596 8
2597 -12
2598 -12
2599 8
2600 0
2601 12
2602 0
2603 -12
2604 -6
2605 14
2606 -2
2607 -6
2608 12
2609 -4
2610 0
2611 8
2612 6
2613 6
2614 6
2615 -2
2616 -2
2617 6
2618 10
2619 10
2620 12
2621 4
2622 -4
2623 12
2624 6
2625 2
2626 2
2627 6
2628 4
2629 8
2630 -12
2631 -16
2632 8
2633 -12
2634 -12
2635 8
2636 2
2637 6
2638 -6
2639 -10
2640 -4
2641 4
2642 4
2643 4
2644 -10
2645 -2
2646 -14
2647 2
2648 10
2649 2
2650 -6
2651 10
2652 8
2653 0
2654 4
2655 4
2656 4
2657 8
2658 12
2659 -8
2660 -6
2661 -2
2662 6
2663 2
2664 -14
2665 6
2666 2
2667 -2
2668 12
2669 0
2670 8
2671 -12
2672 14
2673 6
2674 2
2675 2
2676 -8
2677 8
2678 0
2679 8
2680 8
2681 0
2682 12
2683 12
2684 -2
2685 -2
2686 -2
2687 -10
2688 -12
2689 12
2690 -8
2691 8
2692 -2
2693 -2
2694 -2
2695 -10
2696 14
2697 6
2698 -6
2699 -6
2700 12
2701 12
2702 12
2703 -12
2704 -2
2705 10
2706 6
2707 10
2708 -4
2709 -8
2710 0
2711 -12
2712 12
2713 -8
2714 -12
2715 8
2716 6
2717 -14
2718 2
2719 -10
2720 -10
2721 -2
2722 -2
2723 14
2724 8
2725 0
2726 -4
2727 -4
2728 -4
2729 4
2730 -12
2731 -12
2732 -6
2733 2
2734 6
2735 6
2736 -4
2737 -16
2738 8
2739 -12
2740 -6
2741 6
2742 2
2743 6
2744 -10
2745 -6
2746 -6
2747 6
2748 8
2749 4
2750 -16
2751 -12
2752 -2
2753 6
2754 -14
2755 -14
2756 0
2757 8
2758 -8
2759 8
2760 8
2761 -8
2762 12
2763 4
2764 -10
2765 -10
2766 6
2767 -2
2768 -8
2769 12
2770 8
2771 4
2772 6
2773 2
2774 10
2775 -2
2776 -10
2777 2
2778 -2
2779 2
2780 -8
2781 12
2782 -4
2783 -8
2784 -4
2785 4
2786 12
2787 12
2788 -10
2789 6
2790 10
2791 2
2792 -6
2793 -6
2794 2
2795 10
2796 -8
2797 0
2798 -4
2799 -4
2800 2
2801 -2
2802 14
2803 2
2804 0
2805 12
2806 16
2807 4
2808 4
2809 -8
2810 0
2811 -4
2812 14
2813 2
2814 6
2815 -14
2816 0
2817 -8
2818 -12
2819 4
2820 -10
2821 -10
2822 -2
2823 -2
2824 -10
2825 10
2826 2
2827 -10
2828 -4
2829 -8
2830 4
2831 -8
2832 -12
2833 12
2834 12
2835 4
2836 -10
2837 6
2838 2
2839 -6
2840 -14
2841 -2
2842 2
2843 6
2844 -4
2845 0
2846 -8
2847 12
2848 -2
2849 10
2850 10
2851 -2
2852 4
2853 -8
2854 4
2855 -8
2856 8
2857 8
2858 12
2859 12
2860 -10
2861 14
2862 6
2863 6
2864 -6
2865 -2
2866 2
2867 6
2868 12
2869 8
2870 8
2871 -4
2872 -4
2873 12
2874 -4
2875 -12
2876 -2
2877 -10
2878 -6
2879 2
2880 2
2881 2
2882 6
2883 14
2884 -4
2885 4
2886 12
2887 4
2888 -12
2889 0
2890 -8
2891 4
2892 -2
2893 2
2894 6
2895 2
2896 14
2897 14
2898 6
2899 6
2900 12
2901 4
2902 0
2903 0
2904 8
2905 -4
2906 0
2907 -4
2908 -2
2909 -6
2910 -6
2911 -10
2912 12
2913 8
2914 8
2915 12
2916 -2
2917 2
2918 -10
2919 -6
2920 2
2921 -14
2922 -2
2923 -2
2924 12
2925 4
2926 12
2927 -4
2928 8
2929 12
2930 0
2931 -12
2932 -2
2933 -6
2934 2
2935 6
2936 6
2937 6
2938 -2
2939 6
2940 12
2941 4
2942 8
2943 -16
2944 0
2945 8
2946 8
2947 0
2948 2
2949 2
2950 -10
2951 -2
2952 -6
2953 6
2954 -6
2955 14
2956 12
2957 0
2958 -16
2959 -12
2960 -16
2961 8
2962 12
2963 -4
2964 6
2965 -10
2966 -2
2967 -2
2968 2
2969 6
2970 -10
2971 -6
2972 0
2973 12
2974 -8
2975 12
2976 -2
2977 -6
2978 -2
2979 10
2980 0
2981 -12
2982 12
2983 -8
2984 4
2985 12
2986 -4
2987 -4
2988 -2
2989 -2
2990 10
2991 -6
2992 -2
2993 2
2994 -6
2995 6
2996 4
2997 0
2998 -4
2999 8
3000 12
3001 4
3002 0
3003 -8
3004 -14
3005 2
3006 -6
3007 2
3008 2
3009 10
3010 2
3011 -6
3012 8
3013 -8
3014 12
3015 4
3016 -8
3017 4
3018 -8
3019 -4
3020 14
3021 2
3022 -6
3023 14
3024 -14
3025 -6
3026 6
3027 -10
3028 -12
3029 4
3030 12
3031 -4
3032 0
3033 4
3034 -12
3035 -8
3036 -6
3037 6
3038 10
3039 -2
3040 12
3041 0
3042 4
3043 -8
3044 10
3045 6
3046 -10
3047 -6
3048 14
3049 -2
3050 6
3051 14
3052 -12
3053 -4
3054 -8
3055 16
3056 -12
3057 16
3058 -8
3059 -4
3060 -2
3061 2
3062 -10
3063 10
3064 14
3065 -2
3066 -14
3067 -14
3068 -8
3069 0
3070 -8
3071 8
3072 0
3073 8
3074 8
3075 -4
3076 -6
3077 2
3078 10
3079 14
3080 6
3081 -2
3082 2
3083 6
3084 -4
3085 -12
3086 0
3087 -12
3088 2
3089 -10
3090 -14
3091 2
3092 4
3093 8
3094 -12
3095 4
3096 -4
3097 0
3098 0
3099 0
3100 2
3101 6
3102 -10
3103 6
3104 -8
3105 -4
3106 12
3107 -4
3108 2
3109 14
3110 -2
3111 -10
3112 -2
3113 -14
3114 -10
3115 -10
3116 -4
3117 8
3118 -4
3119 -12
3120 -6
3121 2
3122 6
3123 -6
3124 -4
3125 12
3126 -8
3127 -12
3128 4
3129 12
3130 4
3131 -8
3132 2
3133 -14
3134 2
3135 -2
3136 -12
3137 12
3138 8
3139 4
3140 10
3141 -6
3142 -2
3143 2
3144 14
3145 6
3146 6
3147 2
3148 16
3149 0
3150 8
3151 12
3152 -10
3153 10
3154 -6
3155 -14
3156 -4
3157 8
3158 -8
3159 -8
3160 4
3161 8
3162 12
3163 -12
3164 14
3165 -6
3166 -2
3167 -2
3168 -12
3169 8
3170 12
3171 4
3172 2
3173 6
3174 -6
3175 2
3176 6
3177 -6
3178 2
3179 -6
3180 -8
3181 12
3182 -12
3183 12
3184 6
3185 -2
3186 14
3187 -6
3188 4
3189 -4
3190 -12
3191 0
3192 -4
3193 -12
3194 -8
3195 4
3196 -10
3197 14
3198 10
3199 -10
3200 -6
3201 -6
3202 -14
3203 -10
3204 4
3205 12
3206 4
3207 0
3208 -16
3209 -8
3210 -12
3211 0
3212 6
3213 6
3214 2
3215 -10
3216 4
3217 -8
3218 12
3219 -12
3220 14
3221 10
3222 -10
3223 -10
3224 -10
3225 2
3226 -6
3227 -6
3228 4
3229 -8
3230 8
3231 0
3232 2
3233 -2
3234 -2
3235 14
3236 12
3237 -8
3238 0
3239 0
3240 -16
3241 4
3242 -8
3243 0
3244 -2
3245 2
3246 14
3247 6
3248 -4
3249 4
3250 8
3251 4
3252 -10
3253 -2
3254 2
3255 -2
3256 6
3257 6
3258 -2
3259 -14
3260 -4
3261 12
3262 -12
3263 -8
3264 10
3265 10
3266 6
3267 2
3268 -16
3269 0
3270 12
3271 8
3272 12
3273 -12
3274 -12
3275 -8
3276 14
3277 -10
3278 6
3279 -6
3280 4
3281 -8
3282 8
3283 -8
3284 2
3285 -10
3286 -2
3287 -2
3288 2
3289 -2
3290 2
3291 -6
3292 4
3293 0
3294 -4
3295 4
3296 2
3297 -2
3298 -6
3299 2
3300 -16
3301 -12
3302 -8
3303 8
3304 4
3305 -8
3306 -8
3307 -8
3308 6
3309 2
3310 -6
3311 2
3312 -4
3313 -12
3314 12
3315 0
3316 2
3317 2
3318 10
3319 6
3320 -6
3321 -6
3322 6
3323 2
3324 -4
3325 -12
3326 0
3327 -12
3328 0
3329 4
3330 8
3331 8
3332 6
3333 -14
3334 14
3335 -2
3336 -2
3337 14
3338 2
3339 6
3340 -12
3341 -4
3342 8
3343 -4
3344 12
3345 -8
3346 -4
3347 -4
3348 2
3349 -2
3350 10
3351 2
3352 10
3353 -6
3354 -2
3355 10
3356 8
3357 -8
3358 4
3359 8
3360 16
3361 4
3362 8
3363 8
3364 -10
3365 2
3366 -2
3367 -2
3368 6
3369 -2
3370 -14
3371 -2
3372 -12
3373 4
3374 0
3375 -4
3376 0
3377 -12
3378 -8
3379 0
3380 -2
3381 2
3382 -2
3383 -2
3384 6
3385 -10
3386 -6
3387 -10
3388 -12
3389 -12
3390 0
3391 4
3392 -16
3393 4
3394 12
3395 -12
3396 -2
3397 10
3398 2
3399 -6
3400 -2
3401 -10
3402 -10
3403 10
3404 4
3405 4
3406 -12
3407 -8
3408 4
3409 8
3410 8
3411 8
3412 10
3413 -2
3414 14
3415 -10
3416 2
3417 -14
3418 -6
3419 -2
3420 -8
3421 8
3422 0
3423 12
3424 8
3425 4
3426 -12
3427 -12
3428 6
3429 -6
3430 10
3431 -6
3432 14
3433 6
3434 -2
3435 -14
3436 12
3437 -4
3438 4
3439 -8
3440 -8
3441 12
3442 4
3443 -12
3444 6
3445 -6
3446 2
3447 10
3448 -2
3449 -10
3450 6
3451 2
3452 -12
3453 12
3454 -4
3455 0
3456 6
3457 -2
3458 10
3459 -2
3460 4
3461 4
3462 0
3463 -12
3464 -16
3465 -4
3466 -8
3467 -8
3468 -2
3469 2
3470 -2
3471 -2
3472 -6
3473 2
3474 -2
3475 -6
3476 -8
3477 0
3478 12
3479 0
3480 4
3481 8
3482 -12
3483 -12
3484 -6
3485 14
3486 -6
3487 -14
3488 -10
3489 6
3490 2
3491 -2
3492 4
3493 -4
3494 -8
3495 -12
3496 -16
3497 -4
3498 -8
3499 -8
3500 6
3501 -6
3502 -10
3503 6
3504 14
3505 6
3506 -14
3507 -2
3508 -12
3509 -4
3510 -8
3511 12
3512 -8
3513 -12
3514 0
3515 8
3516 -2
3517 10
3518 6
3519 6
3520 -2
3521 -2
3522 6
3523 -6
3524 -12
3525 -4
3526 -4
3527 0
3528 16
3529 -4
3530 12
3531 -12
3532 -2
3533 2
3534 -6
3535 -14
3536 -6
3537 2
3538 2
3539 6
3540 8
3541 0
3542 8
3543 4
3544 12
3545 -8
3546 0
3547 0
3548 -6
3549 6
3550 6
3551 -2
3552 6
3553 -10
3554 6
3555 -6
3556 -4
3557 4
3558 12
3559 0
3560 -8
3561 -4
3562 -12
3563 -12
3564 14
3565 10
3566 -6
3567 10
3568 -2
3569 -2
3570 -10
3571 -14
3572 -12
3573 4
3574 -12
3575 8
3576 0
3577 12
3578 12
3579 -4
3580 14
3581 10
3582 2
3583 -6
3584 0
3585 12
3586 -16
3587 0
3588 2
3589 -2
3590 14
3591 6
3592 4
3593 -4
3594 -8
3595 4
3596 2
3597 2
3598 2
3599 14
3600 -2
3601 10
3602 6
3603 6
3604 12
3605 -8
3606 0
3607 8
3608 -2
3609 6
3610 10
3611 6
3612 8
3613 -8
3614 16
3615 -4
3616 -8
3617 0
3618 8
3619 12
3620 -10
3621 14
3622 -6
3623 6
3624 0
3625 4
3626 4
3627 4
3628 -14
3629 -2
3630 -6
3631 -6
3632 -6
3633 10
3634 2
3635 14
3636 4
3637 4
3638 0
3639 4
3640 -2
3641 -6
3642 -6
3643 2
3644 12
3645 0
3646 12
3647 -12
3648 -4
3649 4
3650 0
3651 12
3652 6
3653 6
3654 -10
3655 2
3656 4
3657 8
3658 -4
3659 -12
3660 10
3661 -2
3662 14
3663 -2
3664 -2
3665 -10
3666 -6
3667 -10
3668 4
3669 -12
3670 -4
3671 8
3672 2
3673 6
3674 2
3675 10
3676 4
3677 8
3678 0
3679 0
3680 8
3681 -12
3682 12
3683 4
3684 6
3685 -6
3686 -2
3687 6
3688 -12
3689 -4
3690 12
3691 0
3692 -10
3693 -2
3694 2
3695 -2
3696 -2
3697 2
3698 -6
3699 -6
3700 -8
3701 -12
3702 8
3703 -8
3704 6
3705 -10
3706 6
3707 2
3708 -12
3709 4
3710 8
3711 -4
3712 -14
3713 -2
3714 10
3715 -6
3716 0
3717 12
3718 12
3719 -12
3720 -2
3721 14
3722 10
3723 -2
3724 16
3725 8
3726 -16
3727 4
3728 -16
3729 -12
3730 -8
3731 0
3732 -6
3733 -2
3734 6
3735 -10
3736 -8
3737 0
3738 4
3739 0
3740 -10
3741 -10
3742 6
3743 2
3744 2
3745 2
3746 2
3747 -2
3748 12
3749 -4
3750 -8
3751 -4
3752 2
3753 -10
3754 6
3755 6
3756 -8
3757 4
3758 8
3759 -8
3760 12
3761 -4
3762 12
3763 8
3764 -14
3765 2
3766 -2
3767 2
3768 -8
3769 -4
3770 12
3771 -4
3772 10
3773 6
3774 10
3775 -6
3776 6
3777 14
3778 -6
3779 6
3780 4
3781 -12
3782 -4
3783 -8
3784 6
3785 2
3786 14
3787 14
3788 -8
3789 4
3790 -12
3791 12
3792 8
3793 8
3794 12
3795 0
3796 2
3797 -6
3798 -6
3799 -2
3800 4
3801 -8
3802 -4
3803 -12
3804 2
3805 6
3806 -2
3807 -2
3808 10
3809 14
3810 6
3811 -10
3812 12
3813 -8
3814 -12
3815 -12
3816 -2
3817 -10
3818 14
3819 2
3820 12
3821 -12
3822 -8
3823 4
3824 -8
3825 12
3826 -12
3827 -12
3828 -10
3829 -14
3830 -2
3831 -2
3832 -8
3833 0
3834 8
3835 -4
3836 2
3837 10
3838 14
3839 -6
3840 0
3841 8
3842 0
3843 -4
3844 2
3845 2
3846 -2
3847 2
3848 12
3849 12
3850 0
3851 12
3852 6
3853 6
3854 6
3855 -14
3856 -4
3857 8
3858 4
3859 12
3860 10
3861 -10
3862 -2
3863 6
3864 8
3865 4
3866 -4
3867 12
3868 -2
3869 2
3870 -2
3871 6
3872 12
3873 -4
3874 8
3875 -12
3876 -6
3877 -6
3878 -6
3879 -10
3880 4
3881 4
3882 -4
3883 -16
3884 2
3885 -6
3886 14
3887 10
3888 0
3889 -4
3890 -4
3891 12
3892 2
3893 6
3894 -14
3895 -6
3896 -8
3897 12
3898 -8
3899 -8
3900 -6
3901 -2
3902 14
3903 -2
3904 -8
3905 -4
3906 12
3907 -12
3908 6
3909 2
3910 6
3911 -10
3912 -12
3913 -8
3914 12
3915 -4
3916 2
3917 6
3918 6
3919 -10
3920 8
3921 -8
3922 12
3923 -8
3924 2
3925 2
3926 2
3927 -2
3928 4
3929 12
3930 4
3931 16
3932 -2
3933 -2
3934 10
3935 -2
3936 -8
3937 -12
3938 0
3939 -8
3940 2
3941 -2
3942 14
3943 6
3944 -8
3945 -4
3946 -4
3947 4
3948 -6
3949 6
3950 2
3951 2
3952 8
3953 -8
3954 8
3955 -4
3956 6
3957 -2
3958 -6
3959 6
3960 8
3961 8
3962 12
3963 -8
3964 -2
3965 14
3966 6
3967 2
3968 6
3969 2
3970 10
3971 2
3972 -12
3973 16
3974 4
3975 -4
3976 -10
3977 -14
3978 -2
3979 -2
3980 -12
3981 -8
3982 8
3983 0
3984 10
3985 2
3986 -2
3987 10
3988 -4
3989 12
3990 12
3991 0
3992 2
3993 2
3994 -14
3995 14
3996 4
3997 4
3998 0
3999 -4
4000 2
4001 6
4002 10
4003 2
4004 -4
4005 -8
4006 8
4007 8
4008 14
4009 10
4010 -14
4011 10
4012 0
4013 -4
4014 8
4015 0
4016 6
4017 -2
4018 -10
4019 10
4020 -4
4021 -12
4022 0
4023 -12
4024 -6
4025 2
4026 14
4027 -6
4028 8
4029 -8
4030 0
4031 4
4032 10
4033 10
4034 -14
4035 -2
4036 -4
4037 -4
4038 0
4039 12
4040 -6
4041 -14
4042 6
4043 2
4044 -12
4045 -12
4046 12
4047 0
4048 -14
4049 6
4050 2
4051 10
4052 -8
4053 -12
4054 -12
4055 -12
4056 -6
4057 14
4058 6
4059 6
4060 -8
4061 -4
4062 16
4063 0
4064 2
4065 -6
4066 -10
4067 2
4068 0
4069 0
4070 -8
4071 -4
4072 6
4073 -2
4074 6
4075 10
4076 -12
4077 -4
4078 8
4079 -4
4080 2
4081 6
4082 6
4083 -10
4084 12
4085 -16
4086 4
4087 -12
4088 -2
4089 -6
4090 -10
4091 -10
4092 8
4093 12
4094 -12
4095 12
4096 0
4097 4
4098 2
4099 2
4100 6
4101 -2
4102 8
4103 -12
4104 12
4105 8
4106 -2
4107 -2
4108 10
4109 -6
4110 -4
4111 8
4112 0
4113 -12
4114 14
4115 6
4116 -6
4117 2
4118 -8
4119 -4
4120 0
4121 12
4122 -2
4123 6
4124 -6
4125 10
4126 -8
4127 -4
4128 4
4129 4
4130 2
4131 -10
4132 6
4133 2
4134 -4
4135 4
4136 -8
4137 -8
4138 6
4139 -14
4140 -14
4141 -2
4142 -8
4143 8
4144 4
4145 4
4146 -2
4147 -6
4148 2
4149 -2
4150 4
4151 -12
4152 12
4153 -4
4154 6
4155 -6
4156 -6
4157 6
4158 12
4159 -12
4160 2
4161 -14
4162 -12
4163 0
4164 12
4165 0
4166 6
4167 14
4168 6
4169 6
4170 16
4171 4
4172 0
4173 4
4174 2
4175 -14
4176 -14
4177 2
4178 8
4179 -4
4180 -8
4181 12
4182 -10
4183 6
4184 -6
4185 10
4186 8
4187 4
4188 -8
4189 -4
4190 14
4191 -10
4192 2
4193 -2
4194 -8
4195 -8
4196 -8
4197 0
4198 -2
4199 2
4200 6
4201 -6
4202 -12
4203 -12
4204 -4
4205 12
4206 10
4207 -2
4208 10
4209 -10
4210 -12
4211 12
4212 -12
4213 12
4214 14
4215 10
4216 -14
4217 -10
4218 4
4219 12
4220 -12
4221 4
4222 -10
4223 2
4224 2
4225 6
4226 12
4227 12
4228 -8
4229 -8
4230 2
4231 -10
4232 2
4233 14
4234 4
4235 4
4236 0
4237 8
4238 -14
4239 6
4240 -10
4241 2
4242 -12
4243 -12
4244 -8
4245 0
4246 6
4247 -6
4248 10
4249 14
4250 0
4251 0
4252 -4
4253 12
4254 2
4255 6
4256 6
4257 -10
4258 -4
4259 0
4260 -8
4261 -4
4262 6
4263 -10
4264 -10
4265 6
4266 -12
4267 0
4268 16
4269 4
4270 -10
4271 -2
4272 -6
4273 2
4274 -12
4275 8
4276 0
4277 -4
4278 2
4279 2
4280 -2
4281 6
4282 16
4283 -4
4284 4
4285 0
4286 -2
4287 -10
4288 4
4289 12
4290 -10
4291 -6
4292 -2
4293 2
4294 8
4295 0
4296 -12
4297 -4
4298 -10
4299 2
4300 -2
4301 2
4302 -8
4303 -8
4304 8
4305 8
4306 6
4307 -6
4308 6
4309 2
4310 -4
4311 4
4312 12
4313 12
4314 -6
4315 6
4316 2
4317 14
4318 -8
4319 8
4320 4
4321 8
4322 -6
4323 2
4324 -6
4325 -14
4326 16
4327 4
4328 12
4329 8
4330 2
4331 -6
4332 2
4333 2
4334 -8
4335 12
4336 16
4337 -4
4338 2
4339 10
4340 2
4341 2
4342 -12
4343 8
4344 12
4345 0
4346 14
4347 6
4348 -10
4349 -2
4350 8
4351 12
4352 0
4353 0
4354 -10
4355 -6
4356 10
4357 -2
4358 8
4359 0
4360 -8
4361 -4
4362 -2
4363 6
4364 -2
4365 -10
4366 -4
4367 8
4368 -6
4369 -2
4370 -4
4371 -12
4372 8
4373 -8
4374 -14
4375 -10
4376 10
4377 10
4378 4
4379 -8
4380 12
4381 -8
4382 -2
4383 14
4384 0
4385 -8
4386 6
4387 -6
4388 6
4389 2
4390 -4
4391 4
4392 0
4393 12
4394 -2
4395 6
4396 2
4397 2
4398 0
4399 -4
4400 -2
4401 -6
4402 -8
4403 0
4404 -8
4405 -16
4406 -14
4407 6
4408 6
4409 14
4410 0
4411 -12
4412 -12
4413 8
4414 -2
4415 -2
4416 -6
4417 6
4418 0
4419 16
4420 -12
4421 12
4422 -6
4423 6
4424 -2
4425 14
4426 -4
4427 16
4428 4
4429 0
4430 2
4431 2
4432 4
4433 -4
4434 -10
4435 2
4436 10
4437 6
4438 12
4439 12
4440 0
4441 4
4442 2
4443 -6
4444 -6
4445 2
4446 12
4447 8
4448 -10
4449 2
4450 12
4451 4
4452 4
4453 12
4454 -14
4455 6
4456 2
4457 2
4458 -8
4459 4
4460 -4
4461 8
4462 10
4463 -14
4464 4
4465 -4
4466 -2
4467 -14
4468 -2
4469 10
4470 -16
4471 -8
4472 -8
4473 12
4474 10
4475 -6
4476 6
4477 -2
4478 -16
4479 -12
4480 -14
4481 -2
4482 4
4483 12
4484 -12
4485 4
4486 6
4487 2
4488 10
4489 -6
4490 4
4491 0
4492 -8
4493 -4
4494 -14
4495 2
4496 0
4497 8
4498 6
4499 10
4500 6
4501 10
4502 12
4503 -4
4504 -8
4505 12
4506 -2
4507 -2
4508 2
4509 2
4510 8
4511 -12
4512 -6
4513 -10
4514 12
4515 12
4516 -8
4517 8
4518 2
4519 -10
4520 2
4521 2
4522 4
4523 -8
4524 12
4525 0
4526 6
4527 -2
4528 -4
4529 -12
4530 -6
4531 -10
4532 -2
4533 2
4534 4
4535 12
4536 4
4537 8
4538 10
4539 2
4540 10
4541 -6
4542 -8
4543 12
4544 0
4545 8
4546 2
4547 6
4548 -14
4549 6
4550 -4
4551 12
4552 12
4553 8
4554 14
4555 -10
4556 10
4557 2
4558 4
4559 -8
4560 14
4561 -6
4562 -12
4563 -4
4564 -4
4565 12
4566 -6
4567 6
4568 -6
4569 -14
4570 8
4571 12
4572 -4
4573 8
4574 -14
4575 -6
4576 12
4577 12
4578 14
4579 2
4580 2
4581 -2
4582 -12
4583 -12
4584 -8
4585 12
4586 2
4587 -6
4588 -6
4589 10
4590 4
4591 -8
4592 -2
4593 2
4594 12
4595 4
4596 0
4597 -8
4598 -2
4599 -6
4600 10
4601 -6
4602 8
4603 -4
4604 0
4605 4
4606 -2
4607 6
4608 0
4609 4
4610 -2
4611 6
4612 14
4613 -10
4614 -8
4615 -12
4616 -2
4617 6
4618 -12
4619 8
4620 12
4621 -16
4622 -2
4623 -2
4624 -12
4625 4
4626 6
4627 2
4628 2
4629 6
4630 8
4631 -8
4632 -2
4633 2
4634 8
4635 0
4636 -4
4637 -4
4638 10
4639 -2
4640 -4
4641 -12
4642 2
4643 -2
4644 -14
4645 -2
4646 4
4647 -12
4648 14
4649 2
4650 -4
4651 -4
4652 -12
4653 -12
4654 -2
4655 10
4656 -4
4657 0
4658 -10
4659 6
4660 -6
4661 2
4662 8
4663 12
4664 -6
4665 10
4666 -4
4667 0
4668 -8
4669 -12
4670 -2
4671 -2
4672 -10
4673 2
4674 -12
4675 -4
4676 -4
4677 12
4678 -10
4679 2
4680 12
4681 -12
4682 10
4683 6
4684 -6
4685 -2
4686 4
4687 -4
4688 -10
4689 14
4690 -8
4691 -12
4692 12
4693 -8
4694 2
4695 2
4696 8
4697 12
4698 -6
4699 -6
4700 6
4701 6
4702 -4
4703 8
4704 2
4705 -6
4706 8
4707 -4
4708 0
4709 12
4710 2
4711 -6
4712 -4
4713 -8
4714 -14
4715 2
4716 -14
4717 -6
4718 -12
4719 0
4720 6
4721 -6
4722 0
4723 -8
4724 -4
4725 -12
4726 10
4727 6
4728 -4
4729 4
4730 -10
4731 -6
4732 10
4733 -2
4734 8
4735 -8
4736 -10
4737 2
4738 12
4739 4
4740 8
4741 8
4742 2
4743 -2
4744 0
4745 0
4746 14
4747 2
4748 -6
4749 6
4750 12
4751 -4
4752 6
4753 6
4754 8
4755 -4
4756 -8
4757 -4
4758 6
4759 -2
4760 -12
4761 8
4762 14
4763 -2
4764 -2
4765 -2
4766 4
4767 0
4768 10
4769 2
4770 -8
4771 12
4772 4
4773 0
4774 6
4775 -2
4776 -8
4777 -4
4778 14
4779 -10
4780 -6
4781 -6
4782 4
4783 8
4784 -2
4785 -6
4786 -8
4787 -8
4788 0
4789 16
4790 -10
4791 -6
4792 -16
4793 -8
4794 -14
4795 6
4796 10
4797 14
4798 8
4799 8
4800 8
4801 4
4802 -10
4803 -10
4804 -6
4805 10
4806 12
4807 0
4808 -6
4809 -14
4810 -8
4811 12
4812 -4
4813 0
4814 -2
4815 -2
4816 4
4817 -12
4818 -2
4819 -6
4820 -10
4821 10
4822 12
4823 -4
4824 -6
4825 6
4826 -12
4827 4
4828 -4
4829 -12
4830 -14
4831 -2
4832 -12
4833 -12
4834 10
4835 -2
4836 -2
4837 2
4838 8
4839 16
4840 -6
4841 -2
4842 -16
4843 0
4844 -12
4845 -12
4846 -2
4847 -6
4848 12
4849 0
4850 -2
4851 14
4852 -2
4853 6
4854 -4
4855 0
4856 -10
4857 14
4858 -8
4859 4
4860 -8
4861 12
4862 6
4863 14
4864 0
4865 0
4866 -14
4867 -2
4868 -10
4869 -6
4870 4
4871 12
4872 -6
4873 10
4874 -4
4875 8
4876 12
4877 -8
4878 -6
4879 10
4880 -6
4881 -14
4882 0
4883 4
4884 8
4885 12
4886 2
4887 -6
4888 12
4889 12
4890 -6
4891 6
4892 -10
4893 -6
4894 -8
4895 0
4896 -4
4897 4
4898 -14
4899 6
4900 10
4901 -2
4902 12
4903 4
4904 -6
4905 2
4906 8
4907 -4
4908 -12
4909 0
4910 -2
4911 -2
4912 -10
4913 6
4914 8
4915 4
4916 -4
4917 0
4918 2
4919 -6
4920 -4
4921 -12
4922 14
4923 2
4924 -2
4925 2
4926 4
4927 -4
4928 -10
4929 14
4930 16
4931 -4
4932 8
4933 12
4934 14
4935 -2
4936 -4
4937 -12
4938 -2
4939 -6
4940 -6
4941 -10
4942 -8
4943 0
4944 -12
4945 -4
4946 10
4947 6
4948 -2
4949 -6
4950 8
4951 0
4952 2
4953 2
4954 -8
4955 12
4956 -8
4957 4
4958 2
4959 -6
4960 2
4961 2
4962 8
4963 -4
4964 -12
4965 8
4966 -10
4967 -10
4968 -12
4969 -12
4970 10
4971 -2
4972 -14
4973 -2
4974 -12
4975 -4
4976 -16
4977 0
4978 -6
4979 -2
4980 -6
4981 6
4982 -8
4983 0
4984 -6
4985 -14
4986 -4
4987 -8
4988 0
4989 12
4990 -10
4991 -2
4992 14
4993 -6
4994 -4
4995 -12
4996 8
4997 16
4998 2
4999 -2
5000 0
5001 -4
5002 -2
5003 -10
5004 -2
5005 -2
5006 8
5007 -4
5008 -4
5009 8
5010 -10
5011 14
5012 6
5013 -10
5014 4
5015 -8
5016 -10
5017 -6
5018 8
5019 -8
5020 4
5021 -12
5022 10
5023 14
5024 -14
5025 6
5026 -12
5027 -12
5028 4
5029 12
5030 2
5031 -2
5032 -8
5033 12
5034 2
5035 2
5036 14
5037 -2
5038 -12
5039 8
5040 -8
5041 12
5042 -2
5043 -2
5044 10
5045 -6
5046 -12
5047 8
5048 6
5049 -14
5050 12
5051 -12
5052 12
5053 -4
5054 6
5055 -6
5056 -4
5057 0
5058 2
5059 -6
5060 -6
5061 2
5062 12
5063 16
5064 -6
5065 -2
5066 -8
5067 0
5068 12
5069 -4
5070 -10
5071 2
5072 -2
5073 -6
5074 -8
5075 8
5076 -4
5077 4
5078 10
5079 -2
5080 -12
5081 -8
5082 14
5083 6
5084 6
5085 -2
5086 4
5087 -8
5088 0
5089 12
5090 2
5091 2
5092 -2
5093 6
5094 -4
5095 0
5096 -6
5097 6
5098 12
5099 12
5100 -4
5101 12
5102 10
5103 6
5104 10
5105 -2
5106 -8
5107 0
5108 -8
5109 -16
5110 -6
5111 -2
5112 -4
5113 8
5114 -14
5115 2
5116 -2
5117 -10
5118 -8
5119 -4
5120 0
5121 8
5122 -6
5123 2
5124 -6
5125 6
5126 12
5127 8
5128 -6
5129 6
5130 8
5131 12
5132 -4
5133 -12
5134 -6
5135 -6
5136 8
5137 -4
5138 10
5139 -10
5140 6
5141 6
5142 0
5143 -8
5144 -2
5145 6
5146 -4
5147 -12
5148 4
5149 -16
5150 2
5151 -2
5152 6
5153 -10
5154 0
5155 0
5156 8
5157 -4
5158 10
5159 -2
5160 -8
5161 4
5162 14
5163 2
5164 2
5165 -6
5166 8
5167 -8
5168 6
5169 2
5170 8
5171 12
5172 -4
5173 -12
5174 6
5175 6
5176 4
5177 12
5178 10
5179 -14
5180 2
5181 -2
5182 8
5183 4
5184 4
5185 -4
5186 2
5187 -6
5188 -14
5189 -2
5190 -8
5191 -12
5192 2
5193 -2
5194 4
5195 8
5196 8
5197 16
5198 -6
5199 -6
5200 8
5201 4
5202 -2
5203 -14
5204 -6
5205 2
5206 -8
5207 -8
5208 -14
5209 2
5210 -12
5211 4
5212 -4
5213 0
5214 -2
5215 2
5216 -2
5217 6
5218 12
5219 -12
5220 12
5221 -8
5222 2
5223 -2
5224 4
5225 8
5226 14
5227 -6
5228 10
5229 10
5230 -12
5231 12
5232 2
5233 -2
5234 8
5235 -4
5236 -12
5237 -4
5238 2
5239 2
5240 -12
5241 -4
5242 -2
5243 6
5244 -2
5245 -6
5246 -8
5247 -12
5248 8
5249 -4
5250 10
5251 14
5252 -14
5253 10
5254 -12
5255 12
5256 6
5257 -2
5258 4
5259 -12
5260 0
5261 -12
5262 6
5263 2
5264 -8
5265 -8
5266 -14
5267 -6
5268 -2
5269 10
5270 8
5271 -4
5272 -6
5273 -2
5274 -8
5275 12
5276 0
5277 -8
5278 6
5279 14
5280 6
5281 2
5282 0
5283 -4
5284 8
5285 -8
5286 2
5287 2
5288 12
5289 4
5290 10
5291 10
5292 -2
5293 2
5294 -12
5295 -16
5296 14
5297 6
5298 16
5299 0
5300 -4
5301 0
5302 14
5303 10
5304 8
5305 -4
5306 -10
5307 10
5308 -10
5309 -2
5310 -4
5311 4
5312 0
5313 12
5314 6
5315 -14
5316 6
5317 6
5318 12
5319 -4
5320 -6
5321 10
5322 12
5323 -12
5324 0
5325 12
5326 10
5327 -2
5328 -12
5329 4
5330 2
5331 10
5332 6
5333 2
5334 4
5335 -8
5336 2
5337 -10
5338 4
5339 8
5340 4
5341 -4
5342 -2
5343 6
5344 -6
5345 6
5346 8
5347 -12
5348 0
5349 0
5350 -2
5351 14
5352 12
5353 -12
5354 -2
5355 -2
5356 -14
5357 -10
5358 -4
5359 8
5360 14
5361 -2
5362 -12
5363 -4
5364 0
5365 12
5366 6
5367 10
5368 -12
5369 0
5370 6
5371 2
5372 -10
5373 -10
5374 0
5375 16
5376 0
5377 4
5378 -10
5379 2
5380 -2
5381 6
5382 12
5383 4
5384 -6
5385 -10
5386 4
5387 -8
5388 4
5389 -4
5390 14
5391 -10
5392 -6
5393 6
5394 8
5395 12
5396 -12
5397 4
5398 -6
5399 -6
5400 12
5401 -8
5402 -2
5403 2
5404 2
5405 10
5406 -12
5407 -4
5408 10
5409 -14
5410 -4
5411 12
5412 8
5413 12
5414 2
5415 6
5416 4
5417 4
5418 10
5419 -14
5420 -2
5421 -14
5422 4
5423 8
5424 0
5425 0
5426 2
5427 -6
5428 -14
5429 -2
5430 12
5431 -8
5432 -14
5433 2
5434 8
5435 0
5436 0
5437 -12
5438 6
5439 -6
5440 12
5441 -8
5442 6
5443 10
5444 -14
5445 -6
5446 -12
5447 12
5448 -2
5449 -6
5450 -4
5451 0
5452 -8
5453 -8
5454 -10
5455 6
5456 2
5457 6
5458 -4
5459 8
5460 4
5461 -12
5462 6
5463 6
5464 -4
5465 -8
5466 -6
5467 -2
5468 -14
5469 2
5470 -16
5471 0
5472 2
5473 -14
5474 0
5475 -8
5476 -8
5477 12
5478 -2
5479 2
5480 12
5481 12
5482 -2
5483 6
5484 -10
5485 2
5486 -8
5487 4
5488 4
5489 12
5490 10
5491 10
5492 -2
5493 10
5494 -4
5495 -8
5496 6
5497 -10
5498 16
5499 8
5500 4
5501 0
5502 14
5503 -6
5504 -8
5505 -12
5506 10
5507 6
5508 6
5509 -2
5510 0
5511 -16
5512 2
5513 6
5514 0
5515 4
5516 4
5517 -4
5518 2
5519 2
5520 2
5521 6
5522 12
5523 0
5524 12
5525 12
5526 14
5527 6
5528 4
5529 8
5530 -6
5531 -2
5532 2
5533 -6
5534 8
5535 -8
5536 2
5537 -6
5538 8
5539 16
5540 0
5541 12
5542 -2
5543 2
5544 -4
5545 -4
5546 -2
5547 -2
5548 -2
5549 10
5550 0
5551 4
5552 8
5553 8
5554 -2
5555 -2
5556 10
5557 14
5558 -8
5559 -12
5560 10
5561 -6
5562 12
5563 -4
5564 0
5565 12
5566 2
5567 -10
5568 -12
5569 8
5570 2
5571 -10
5572 -14
5573 -6
5574 8
5575 -8
5576 -2
5577 2
5578 8
5579 12
5580 -8
5581 -8
5582 -14
5583 10
5584 2
5585 14
5586 0
5587 -4
5588 12
5589 -4
5590 2
5591 -6
5592 4
5593 -8
5594 14
5595 2
5596 -6
5597 -6
5598 4
5599 12
5600 -6
5601 -6
5602 -12
5603 -12
5604 8
5605 4
5606 10
5607 -2
5608 12
5609 -4
5610 2
5611 2
5612 -10
5613 10
5614 12
5615 -8
5616 -12
5617 -4
5618 6
5619 -2
5620 6
5621 10
5622 0
5623 -4
5624 -2
5625 -2
5626 12
5627 -4
5628 12
5629 -16
5630 -6
5631 6
5632 0
5633 -8
5634 -14
5635 -14
5636 2
5637 -10
5638 16
5639 -12
5640 8
5641 -8
5642 -10
5643 -10
5644 2
5645 -2
5646 4
5647 -8
5648 0
5649 0
5650 2
5651 2
5652 2
5653 6
5654 8
5655 -12
5656 -12
5657 -4
5658 -6
5659 -6
5660 -10
5661 2
5662 -8
5663 4
5664 14
5665 -2
5666 -12
5667 4
5668 -12
5669 -8
5670 -2
5671 -6
5672 2
5673 2
5674 -4
5675 -12
5676 0
5677 -12
5678 6
5679 10
5680 2
5681 -6
5682 8
5683 -8
5684 8
5685 12
5686 -6
5687 14
5688 2
5689 10
5690 -12
5691 -4
5692 -8
5693 -4
5694 -2
5695 -6
5696 8
5697 -4
5698 -2
5699 2
5700 2
5701 -14
5702 12
5703 4
5704 -12
5705 0
5706 6
5707 -6
5708 6
5709 14
5710 4
5711 12
5712 0
5713 -12
5714 -2
5715 -6
5716 -14
5717 -6
5718 12
5719 -12
5720 8
5721 -12
5722 -6
5723 -10
5724 10
5725 -6
5726 -16
5727 8
5728 -10
5729 2
5730 8
5731 -4
5732 12
5733 -4
5734 -6
5735 -6
5736 -10
5737 2
5738 12
5739 8
5740 -12
5741 -12
5742 14
5743 6
5744 -6
5745 6
5746 -12
5747 0
5748 8
5749 0
5750 6
5751 6
5752 6
5753 2
5754 12
5755 0
5756 4
5757 12
5758 -10
5759 -2
5760 -12
5761 -16
5762 -2
5763 -6
5764 2
5765 2
5766 8
5767 -16
5768 8
5769 12
5770 14
5771 -6
5772 -2
5773 6
5774 8
5775 0
5776 -4
5777 0
5778 -10
5779 2
5780 10
5781 -6
5782 -8
5783 -8
5784 -4
5785 8
5786 -6
5787 6
5788 10
5789 -14
5790 4
5791 -12
5792 10
5793 6
5794 0
5795 4
5796 12
5797 4
5798 6
5799 -2
5800 2
5801 14
5802 -4
5803 8
5804 -4
5805 -12
5806 -14
5807 2
5808 -2
5809 2
5810 4
5811 -8
5812 0
5813 -8
5814 2
5815 2
5816 2
5817 6
5818 4
5819 0
5820 4
5821 -4
5822 -6
5823 2
5824 -4
5825 12
5826 -6
5827 2
5828 2
5829 6
5830 4
5831 -8
5832 4
5833 12
5834 -2
5835 -10
5836 2
5837 14
5838 8
5839 -4
5840 -12
5841 4
5842 10
5843 -6
5844 2
5845 -2
5846 -12
5847 8
5848 -8
5849 16
5850 2
5851 2
5852 6
5853 10
5854 -12
5855 -8
5856 -14
5857 -14
5858 4
5859 4
5860 4
5861 0
5862 2
5863 6
5864 -10
5865 6
5866 -4
5867 -12
5868 0
5869 12
5870 10
5871 6
5872 -2
5873 -2
5874 -8
5875 0
5876 -8
5877 -4
5878 -10
5879 10
5880 14
5881 -2
5882 4
5883 -12
5884 -8
5885 -4
5886 10
5887 -10
5888 0
5889 12
5890 -10
5891 2
5892 -6
5893 2
5894 -12
5895 -4
5896 0
5897 -8
5898 -6
5899 2
5900 14
5901 2
5902 4
5903 -8
5904 -2
5905 -10
5906 4
5907 -4
5908 -8
5909 12
5910 10
5911 -2
5912 -2
5913 -6
5914 8
5915 -12
5916 4
5917 -4
5918 2
5919 -6
5920 -2
5921 -10
5922 -4
5923 -4
5924 -12
5925 8
5926 -2
5927 -6
5928 -14
5929 6
5930 -12
5931 0
5932 12
5933 12
5934 2
5935 10
5936 -12
5937 8
5938 -6
5939 -10
5940 2
5941 2
5942 12
5943 -12
5944 -8
5945 0
5946 2
5947 2
5948 2
5949 6
5950 8
5951 -12
5952 -8
5953 8
5954 -6
5955 -14
5956 6
5957 -6
5958 -12
5959 -16
5960 -16
5961 -12
5962 6
5963 2
5964 -6
5965 -14
5966 -12
5967 -12
5968 6
5969 -14
5970 -8
5971 12
5972 -4
5973 -4
5974 2
5975 10
5976 -2
5977 6
5978 4
5979 4
5980 8
5981 -12
5982 10
5983 -2
5984 -2
5985 2
5986 -8
5987 12
5988 8
5989 0
5990 -10
5991 -2
5992 10
5993 2
5994 8
5995 0
5996 0
5997 12
5998 -6
5999 -10
6000 -12
6001 4
6002 -10
6003 -10
6004 -2
6005 2
6006 12
6007 0
6008 0
6009 12
6010 6
6011 -14
6012 14
6013 14
6014 -8
6015 8
6016 -4
6017 0
6018 -2
6019 2
6020 10
6021 10
6022 -8
6023 8
6024 -12
6025 4
6026 -6
6027 -6
6028 6
6029 -14
6030 0
6031 -4
6032 2
6033 -14
6034 4
6035 4
6036 8
6037 -12
6038 14
6039 -6
6040 2
6041 6
6042 -8
6043 -4
6044 -12
6045 -12
6046 6
6047 6
6048 2
6049 -14
6050 4
6051 -4
6052 -4
6053 -8
6054 2
6055 -10
6056 6
6057 2
6058 12
6059 0
6060 4
6061 -4
6062 6
6063 -10
6064 8
6065 -12
6066 2
6067 6
6068 2
6069 10
6070 8
6071 -8
6072 -12
6073 -12
6074 2
6075 10
6076 -6
6077 6
6078 -4
6079 -16
6080 -8
6081 0
6082 -2
6083 -2
6084 -6
6085 -10
6086 4
6087 8
6088 8
6089 4
6090 2
6091 6
6092 6
6093 6
6094 12
6095 -12
6096 6
6097 10
6098 12
6099 -8
6100 -8
6101 0
6102 -6
6103 -6
6104 14
6105 -2
6106 -8
6107 0
6108 4
6109 8
6110 2
6111 -2
6112 14
6113 -6
6114 -12
6115 0
6116 -4
6117 -4
6118 -2
6119 14
6120 -6
6121 10
6122 4
6123 4
6124 4
6125 8
6126 2
6127 -10
6128 -4
6129 -12
6130 -6
6131 2
6132 2
6133 14
6134 4
6135 16
6136 16
6137 4
6138 2
6139 -10
6140 -6
6141 2
6142 -8
6143 0
6144 0
6145 4
6146 2
6147 2
6148 -4
6149 12
6150 -2
6151 10
6152 -4
6153 4
6154 -10
6155 2
6156 -4
6157 -8
6158 -2
6159 -2
6160 -6
6161 -2
6162 12
6163 4
6164 2
6165 -6
6166 -4
6167 -8
6168 -2
6169 -10
6170 0
6171 -12
6172 2
6173 -10
6174 -12
6175 -12
6176 -6
6177 -6
6178 -8
6179 4
6180 -2
6181 2
6182 12
6183 12
6184 -10
6185 2
6186 -12
6187 -12
6188 6
6189 14
6190 12
6191 -8
6192 -4
6193 -12
6194 -6
6195 6
6196 -4
6197 0
6198 2
6199 -6
6200 16
6201 -12
6202 -10
6203 -10
6204 -12
6205 -4
6206 -6
6207 -2
6208 -12
6209 0
6210 -2
6211 -2
6212 8
6213 -8
6214 -6
6215 -2
6216 8
6217 8
6218 -6
6219 6
6220 0
6221 -4
6222 -14
6223 -6
6224 2
6225 -10
6226 -12
6227 4
6228 -6
6229 -6
6230 -4
6231 8
6232 14
6233 -10
6234 0
6235 -4
6236 -14
6237 -2
6238 12
6239 -4
6240 -6
6241 -6
6242 8
6243 -4
6244 6
6245 2
6246 -4
6247 -4
6248 6
6249 2
6250 4
6251 12
6252 -2
6253 -2
6254 12
6255 8
6256 8
6257 8
6258 -2
6259 10
6260 8
6261 12
6262 -2
6263 14
6264 12
6265 -8
6266 -6
6267 10
6268 0
6269 -8
6270 -10
6271 -14
6272 14
6273 -10
6274 8
6275 -12
6276 2
6277 14
6278 -12
6279 4
6280 -10
6281 -6
6282 8
6283 8
6284 -10
6285 6
6286 8
6287 -12
6288 0
6289 -16
6290 2
6291 14
6292 0
6293 12
6294 -14
6295 10
6296 0
6297 -4
6298 2
6299 -14
6300 4
6301 4
6302 -2
6303 2
6304 -8
6305 -4
6306 -2
6307 6
6308 -12
6309 4
6310 2
6311 6
6312 -8
6313 -16
6314 14
6315 2
6316 8
6317 4
6318 -2
6319 6
6320 2
6321 -10
6322 0
6323 0
6324 -6
6325 -14
6326 8
6327 12
6328 -6
6329 2
6330 0
6331 12
6332 -2
6333 2
6334 12
6335 -12
6336 2
6337 -6
6338 -4
6339 0
6340 6
6341 10
6342 16
6343 0
6344 -14
6345 6
6346 4
6347 12
6348 2
6349 -6
6350 -4
6351 8
6352 0
6353 -8
6354 10
6355 -10
6356 8
6357 4
6358 -6
6359 -6
6360 -8
6361 12
6362 2
6363 -14
6364 -12
6365 4
6366 -2
6367 -6
6368 -8
6369 -12
6370 6
6371 -2
6372 4
6373 -12
6374 2
6375 -2
6376 8
6377 -8
6378 6
6379 -6
6380 8
6381 -12
6382 -2
6383 -2
6384 6
6385 10
6386 4
6387 -4
6388 6
6389 -10
6390 -4
6391 0
6392 14
6393 -10
6394 -12
6395 -8
6396 10
6397 6
6398 16
6399 8
6400 0
6401 -8
6402 -6
6403 -10
6404 -8
6405 -12
6406 2
6407 10
6408 12
6409 -4
6410 -2
6411 -14
6412 4
6413 0
6414 -2
6415 -10
6416 -8
6417 -12
6418 2
6419 2
6420 -12
6421 -12
6422 6
6423 2
6424 -8
6425 4
6426 10
6427 10
6428 -4
6429 4
6430 -2
6431 2
6432 -2
6433 6
6434 0
6435 -4
6436 14
6437 -6
6438 16
6439 -8
6440 10
6441 -6
6442 4
6443 -8
6444 -14
6445 -2
6446 -12
6447 -4
6448 10
6449 -2
6450 4
6451 -4
6452 6
6453 -2
6454 -8
6455 12
6456 -6
6457 14
6458 -4
6459 -12
6460 6
6461 6
6462 -8
6463 4
6464 -12
6465 -12
6466 6
6467 -14
6468 16
6469 -12
6470 -6
6471 2
6472 4
6473 -12
6474 14
6475 10
6476 -8
6477 4
6478 2
6479 2
6480 -8
6481 -4
6482 -6
6483 -6
6484 16
6485 -8
6486 2
6487 14
6488 -4
6489 -8
6490 -10
6491 -2
6492 -12
6493 -4
6494 -10
6495 2
6496 -10
6497 6
6498 16
6499 12
6500 -14
6501 6
6502 4
6503 -4
6504 6
6505 -10
6506 -8
6507 4
6508 2
6509 -2
6510 4
6511 4
6512 -2
6513 -6
6514 16
6515 -8
6516 -2
6517 -2
6518 0
6519 -12
6520 2
6521 6
6522 12
6523 -4
6524 -6
6525 -6
6526 -4
6527 0
6528 -2
6529 6
6530 -12
6531 0
6532 -2
6533 -6
6534 -12
6535 12
6536 10
6537 2
6538 -8
6539 4
6540 -14
6541 -10
6542 -8
6543 -8
6544 6
6545 -6
6546 -12
6547 12
6548 -14
6549 10
6550 8
6551 12
6552 -2
6553 -6
6554 -12
6555 -12
6556 -6
6557 2
6558 0
6559 4
6560 12
6561 -4
6562 -6
6563 -2
6564 4
6565 8
6566 -14
6567 2
6568 0
6569 0
6570 6
6571 -6
6572 -8
6573 -12
6574 6
6575 -2
6576 8
6577 -4
6578 6
6579 -2
6580 4
6581 -4
6582 10
6583 14
6584 -8
6585 -12
6586 -2
6587 14
6588 12
6589 4
6590 -14
6591 -10
6592 6
6593 -10
6594 -12
6595 0
6596 2
6597 -10
6598 8
6599 0
6600 6
6601 -2
6602 -4
6603 0
6604 2
6605 6
6606 -8
6607 0
6608 2
6609 14
6610 8
6611 0
6612 2
6613 2
6614 8
6615 12
6616 -2
6617 -6
6618 12
6619 -12
6620 6
6621 14
6622 12
6623 8
6624 0
6625 8
6626 -10
6627 -6
6628 12
6629 -8
6630 10
6631 -6
6632 -8
6633 8
6634 -10
6635 2
6636 12
6637 -8
6638 10
6639 10
6640 0
6641 -4
6642 6
6643 -2
6644 8
6645 -8
6646 -2
6647 2
6648 -12
6649 0
6650 2
6651 -6
6652 -4
6653 4
6654 2
6655 -2
6656 0
6657 4
6658 -2
6659 -2
6660 -4
6661 12
6662 6
6663 -6
6664 2
6665 -2
6666 8
6667 8
6668 2
6669 10
6670 12
6671 0
6672 -2
6673 6
6674 -4
6675 -8
6676 2
6677 14
6678 -4
6679 4
6680 -8
6681 8
6682 6
6683 2
6684 0
6685 -12
6686 -14
6687 -6
6688 -10
6689 6
6690 4
6691 -8
6692 -2
6693 10
6694 0
6695 -8
6696 12
6697 -4
6698 -6
6699 6
6700 0
6701 12
6702 10
6703 -6
6704 8
6705 -12
6706 6
6707 -2
6708 8
6709 8
6710 -6
6711 14
6712 -10
6713 -14
6714 -4
6715 12
6716 -14
6717 2
6718 4
6719 16
6720 -12
6721 -12
6722 -14
6723 -2
6724 -4
6725 0
6726 -10
6727 -2
6728 14
6729 6
6730 4
6731 0
6732 10
6733 -10
6734 -12
6735 -4
6736 -6
6737 6
6738 -8
6739 -8
6740 10
6741 -14
6742 -12
6743 8
6744 -4
6745 -16
6746 10
6747 -6
6748 0
6749 0
6750 2
6751 -10
6752 -6
6753 6
6754 8
6755 8
6756 -2
6757 -2
6758 -16
6759 -4
6760 8
6761 4
6762 6
6763 -2
6764 -8
6765 -8
6766 2
6767 -10
6768 -4
6769 -4
6770 -6
6771 6
6772 8
6773 -12
6774 10
6775 -6
6776 2
6777 2
6778 8
6779 12
6780 10
6781 6
6782 12
6783 4
6784 6
6785 14
6786 -4
6787 16
6788 -2
6789 2
6790 0
6791 -8
6792 12
6793 -12
6794 2
6795 -2
6796 8
6797 12
6798 2
6799 2
6800 12
6801 0
6802 -6
6803 2
6804 4
6805 -4
6806 -2
6807 -14
6808 2
6809 6
6810 8
6811 -8
6812 -2
6813 6
6814 -8
6815 -12
6816 4
6817 0
6818 10
6819 -6
6820 -8
6821 0
6822 2
6823 6
6824 -2
6825 2
6826 -4
6827 12
6828 14
6829 -2
6830 -8
6831 -4
6832 6
6833 6
6834 -12
6835 0
6836 10
6837 -2
6838 12
6839 -12
6840 0
6841 -8
6842 -2
6843 10
6844 16
6845 -4
6846 -6
6847 2
6848 14
6849 10
6850 12
6851 -12
6852 2
6853 -14
6854 12
6855 0
6856 4
6857 0
6858 2
6859 2
6860 -4
6861 -4
6862 -2
6863 -6
6864 -12
6865 -12
6866 10
6867 14
6868 8
6869 4
6870 10
6871 2
6872 10
6873 -6
6874 8
6875 4
6876 2
6877 -2
6878 -12
6879 -12
6880 4
6881 4
6882 -14
6883 6
6884 4
6885 8
6886 -10
6887 6
6888 14
6889 6
6890 -12
6891 8
6892 -6
6893 6
6894 12
6895 12
6896 -2
6897 10
6898 -12
6899 -4
6900 -2
6901 -10
6902 8
6903 -12
6904 8
6905 -4
6906 -2
6907 6
6908 4
6909 -12
6910 6
6911 2
6912 0
6913 -8
6914 6
6915 -14
6916 -12
6917 -16
6918 -2
6919 -2
6920 -6
6921 -2
6922 0
6923 8
6924 -10
6925 -2
6926 -8
6927 4
6928 16
6929 -8
6930 -10
6931 2
6932 12
6933 8
6934 -10
6935 6
6936 6
6937 2
6938 -4
6939 12
6940 -6
6941 -6
6942 12
6943 0
6944 -2
6945 -2
6946 -8
6947 -12
6948 -2
6949 10
6950 4
6951 12
6952 -4
6953 8
6954 -10
6955 14
6956 -4
6957 -12
6958 10
6959 -2
6960 14
6961 6
6962 0
6963 -12
6964 14
6965 2
6966 12
6967 -4
6968 8
6969 4
6970 -6
6971 2
6972 -8
6973 0
6974 -2
6975 2
6976 12
6977 -16
6978 -6
6979 2
6980 16
6981 -8
6982 2
6983 -2
6984 -6
6985 2
6986 -8
6987 -12
6988 -2
6989 -6
6990 -8
6991 8
6992 -12
6993 8
6994 -6
6995 -14
6996 16
6997 -8
6998 -6
6999 -10
7000 14
7001 14
7002 -12
7003 8
7004 10
7005 -2
7006 12
7007 -12
7008 2
7009 6
7010 12
7011 -4
7012 10
7013 -6
7014 0
7015 -4
7016 12
7017 4
7018 6
7019 -6
7020 12
7021 0
7022 -6
7023 -6
7024 -6
7025 6
7026 4
7027 12
7028 2
7029 10
7030 -8
7031 -4
7032 0
7033 -8
7034 -6
7035 -2
7036 0
7037 -12
7038 14
7039 -2
7040 -10
7041 -10
7042 8
7043 4
7044 14
7045 -6
7046 -4
7047 4
7048 8
7049 -4
7050 2
7051 2
7052 8
7053 -8
7054 -10
7055 2
7056 14
7057 6
7058 8
7059 -4
7060 -2
7061 2
7062 4
7063 4
7064 12
7065 0
7066 -2
7067 -2
7068 -12
7069 -12
7070 10
7071 6
7072 4
7073 12
7074 10
7075 6
7076 -8
7077 4
7078 2
7079 -14
7080 10
7081 6
7082 8
7083 8
7084 14
7085 -2
7086 -8
7087 12
7088 4
7089 12
7090 -6
7091 6
7092 -8
7093 4
7094 2
7095 2
7096 -10
7097 10
7098 4
7099 12
7100 10
7101 2
7102 -12
7103 0
7104 2
7105 -2
7106 -4
7107 -12
7108 -6
7109 2
7110 0
7111 4
7112 0
7113 -8
7114 2
7115 6
7116 8
7117 12
7118 14
7119 14
7120 -6
7121 -2
7122 4
7123 -12
7124 -6
7125 10
7126 0
7127 -4
7128 4
7129 12
7130 6
7131 10
7132 -12
7133 -8
7134 10
7135 -6
7136 -8
7137 4
7138 -2
7139 -2
7140 4
7141 -12
7142 -2
7143 -14
7144 2
7145 -6
7146 0
7147 -4
7148 6
7149 2
7150 0
7151 0
7152 -8
7153 4
7154 6
7155 6
7156 4
7157 -12
7158 -10
7159 10
7160 -2
7161 14
7162 4
7163 -8
7164 2
7165 6
7166 -12
7167 -4
7168 0
7169 -4
7170 2
7171 -10
7172 12
7173 -4
7174 -2
7175 14
7176 6
7177 -14
7178 -12
7179 0
7180 -10
7181 6
7182 -12
7183 12
7184 -6
7185 -6
7186 -8
7187 8
7188 2
7189 6
7190 -8
7191 -12
7192 8
7193 -8
7194 2
7195 -6
7196 4
7197 8
7198 -10
7199 10
7200 -12
7201 8
7202 -10
7203 -6
7204 -12
7205 -4
7206 -2
7207 14
7208 -6
7209 6
7210 8
7211 -4
7212 6
7213 -10
7214 -4
7215 12
7216 -2
7217 -2
7218 -4
7219 -12
7220 2
7221 -10
7222 0
7223 4
7224 12
7225 4
7226 6
7227 -2
7228 -4
7229 -8
7230 -10
7231 10
7232 6
7233 6
7234 12
7235 12
7236 -14
7237 14
7238 -8
7239 -4
7240 0
7241 -8
7242 10
7243 -6
7244 8
7245 12
7246 2
7247 6
7248 0
7249 4
7250 -14
7251 -2
7252 8
7253 8
7254 -14
7255 2
7256 -14
7257 14
7258 -8
7259 4
7260 -10
7261 -2
7262 4
7263 4
7264 -2
7265 -10
7266 -12
7267 -12
7268 -10
7269 -6
7270 -12
7271 -8
7272 -8
7273 -16
7274 2
7275 10
7276 4
7277 -8
7278 6
7279 2
7280 -16
7281 4
7282 2
7283 -10
7284 12
7285 -4
7286 14
7287 -10
7288 2
7289 -10
7290 -8
7291 4
7292 2
7293 2
7294 -8
7295 8
7296 -4
7297 8
7298 -2
7299 -6
7300 0
7301 16
7302 -14
7303 -6
7304 6
7305 10
7306 -12
7307 0
7308 -2
7309 6
7310 -4
7311 -12
7312 -14
7313 -14
7314 0
7315 -8
7316 2
7317 6
7318 8
7319 12
7320 12
7321 4
7322 6
7323 -2
7324 16
7325 12
7326 2
7327 6
7328 0
7329 4
7330 -6
7331 -10
7332 8
7333 0
7334 -6
7335 2
7336 -6
7337 -2
7338 0
7339 4
7340 -2
7341 -10
7342 -4
7343 12
7344 6
7345 6
7346 -4
7347 12
7348 2
7349 6
7350 8
7351 -12
7352 0
7353 0
7354 2
7355 10
7356 8
7357 12
7358 -6
7359 -2
7360 -2
7361 6
7362 4
7363 4
7364 2
7365 -10
7366 -8
7367 12
7368 -4
7369 -12
7370 6
7371 -2
7372 -4
7373 0
7374 6
7375 -14
7376 -12
7377 0
7378 6
7379 2
7380 4
7381 12
7382 -2
7383 -2
7384 2
7385 -2
7386 -8
7387 -4
7388 -2
7389 -10
7390 12
7391 -12
7392 -2
7393 -2
7394 -4
7395 12
7396 14
7397 -6
7398 -12
7399 8
7400 12
7401 4
7402 -2
7403 -2
7404 -16
7405 -12
7406 -6
7407 -2
7408 -4
7409 -8
7410 6
7411 -6
7412 0
7413 8
7414 -6
7415 -14
7416 10
7417 -2
7418 8
7419 -4
7420 2
7421 2
7422 0
7423 -8
7424 0
7425 16
7426 2
7427 -14
7428 0
7429 -4
7430 10
7431 6
7432 2
7433 -2
7434 0
7435 -4
7436 2
7437 10
7438 -8
7439 16
7440 -8
7441 -8
7442 -10
7443 6
7444 -12
7445 8
7446 2
7447 6
7448 6
7449 -6
7450 8
7451 12
7452 2
7453 -6
7454 -12
7455 12
7456 8
7457 4
7458 -2
7459 2
7460 4
7461 4
7462 10
7463 -14
7464 2
7465 -6
7466 -4
7467 -4
7468 6
7469 2
7470 0
7471 -12
7472 -4
7473 0
7474 6
7475 -14
7476 -12
7477 -12
7478 -10
7479 -2
7480 2
7481 -6
7482 8
7483 8
7484 2
7485 6
7486 0
7487 -4
7488 14
7489 -6
7490 -12
7491 8
7492 2
7493 10
7494 -16
7495 -16
7496 -16
7497 8
7498 -6
7499 -6
7500 -12
7501 8
7502 6
7503 2
7504 14
7505 2
7506 -8
7507 -12
7508 -2
7509 6
7510 8
7511 8
7512 12
7513 -12
7514 -14
7515 2
7516 12
7517 -8
7518 2
7519 -10
7520 -6
7521 -6
7522 -4
7523 -4
7524 10
7525 14
7526 12
7527 0
7528 -4
7529 -8
7530 -6
7531 -10
7532 4
7533 4
7534 2
7535 2
7536 -10
7537 6
7538 -12
7539 -12
7540 2
7541 -2
7542 -8
7543 -12
7544 -12
7545 -8
7546 -10
7547 10
7548 -8
7549 -8
7550 2
7551 -14
7552 12
7553 8
7554 2
7555 -2
7556 -4
7557 -4
7558 2
7559 -14
7560 -10
7561 6
7562 8
7563 8
7564 -10
7565 10
7566 8
7567 12
7568 0
7569 -4
7570 2
7571 -2
7572 4
7573 -4
7574 -2
7575 6
7576 -10
7577 14
7578 -4
7579 4
7580 -6
7581 -2
7582 -8
7583 12
7584 4
7585 -12
7586 6
7587 -2
7588 0
7589 12
7590 -6
7591 -2
7592 6
7593 -6
7594 -4
7595 8
7596 -6
7597 10
7598 -8
7599 0
7600 -12
7601 -4
7602 -6
7603 -6
7604 -12
7605 0
7606 -6
7607 14
7608 2
7609 6
7610 -12
7611 0
7612 10
7613 2
7614 -4
7615 -4
7616 2
7617 -6
7618 -12
7619 -12
7620 6
7621 -14
7622 -8
7623 12
7624 12
7625 -8
7626 2
7627 6
7628 0
7629 0
7630 -10
7631 -2
7632 -2
7633 -2
7634 4
7635 -4
7636 -10
7637 -14
7638 -12
7639 8
7640 4
7641 0
7642 6
7643 10
7644 -4
7645 4
7646 6
7647 6
7648 -2
7649 -14
7650 4
7651 -8
7652 -2
7653 14
7654 -4
7655 12
7656 8
7657 0
7658 -6
7659 2
7660 0
7661 -12
7662 10
7663 -2
7664 6
7665 10
7666 -8
7667 -4
7668 10
7669 2
7670 12
7671 4
7672 12
7673 12
7674 -14
7675 2
7676 -8
7677 -4
7678 -2
7679 2
7680 0
7681 -12
7682 -6
7683 6
7684 4
7685 4
7686 2
7687 10
7688 -8
7689 8
7690 -2
7691 -2
7692 -8
7693 12
7694 2
7695 -10
7696 10
7697 6
7698 0
7699 12
7700 6
7701 -2
7702 0
7703 8
7704 -14
7705 -6
7706 -12
7707 4
7708 2
7709 -2
7710 -8
7711 -4
7712 0
7713 4
7714 -10
7715 2
7716 -4
7717 -12
7718 -10
7719 6
7720 -12
7721 12
7722 6
7723 -2
7724 4
7725 -8
7726 -6
7727 -2
7728 6
7729 10
7730 -8
7731 12
7732 -14
7733 10
7734 -8
7735 0
7736 10
7737 2
7738 8
7739 8
7740 2
7741 -10
7742 4
7743 0
7744 6
7745 -14
7746 12
7747 0
7748 -2
7749 -2
7750 0
7751 8
7752 2
7753 2
7754 -4
7755 12
7756 -2
7757 10
7758 -12
7759 -16
7760 4
7761 8
7762 14
7763 2
7764 12
7765 4
7766 2
7767 -6
7768 0
7769 -8
7770 14
7771 -2
7772 4
7773 8
7774 14
7775 -6
7776 -10
7777 10
7778 0
7779 12
7780 -2
7781 -2
7782 4
7783 -4
7784 -10
7785 6
7786 -12
7787 4
7788 -6
7789 -2
7790 -12
7791 -8
7792 -8
7793 -4
7794 6
7795 -6
7796 -8
7797 -8
7798 2
7799 2
7800 -8
7801 8
7802 -6
7803 2
7804 12
7805 0
7806 -6
7807 -10
7808 -12
7809 -8
7810 -2
7811 -6
7812 12
7813 4
7814 2
7815 2
7816 -8
7817 0
7818 6
7819 -2
7820 4
7821 8
7822 -2
7823 2
7824 2
7825 14
7826 -8
7827 -12
7828 -6
7829 -6
7830 -4
7831 12
7832 6
7833 6
7834 16
7835 -8
7836 -6
7837 -10
7838 0
7839 4
7840 -12
7841 -16
7842 2
7843 6
7844 4
7845 -4
7846 -2
7847 14
7848 12
7849 -12
7850 -2
7851 6
7852 -8
7853 -12
7854 -10
7855 2
7856 -10
7857 2
7858 0
7859 -4
7860 -2
7861 -10
7862 4
7863 12
7864 -2
7865 -10
7866 12
7867 12
7868 10
7869 6
7870 4
7871 8
7872 10
7873 14
7874 0
7875 12
7876 -2
7877 14
7878 8
7879 0
7880 -6
7881 -6
7882 -4
7883 12
7884 10
7885 -2
7886 0
7887 4
7888 -4
7889 8
7890 6
7891 2
7892 8
7893 -16
7894 -10
7895 -2
7896 12
7897 -12
7898 2
7899 2
7900 -4
7901 8
7902 6
7903 -6
7904 10
7905 -2
7906 -4
7907 8
7908 14
7909 6
7910 -12
7911 4
7912 6
7913 14
7914 -12
7915 -4
7916 14
7917 -14
7918 16
7919 -12
7920 -8
7921 -4
7922 14
7923 2
7924 -4
7925 4
7926 6
7927 14
7928 4
7929 12
7930 6
7931 6
7932 -12
7933 -8
7934 -6
7935 6
7936 0
7937 0
7938 2
7939 2
7940 -12
7941 -8
7942 -6
7943 6
7944 4
7945 -4
7946 10
7947 2
7948 -8
7949 -4
7950 2
7951 -2
7952 12
7953 -8
7954 -6
7955 6
7956 0
7957 -8
7958 -14
7959 2
7960 12
7961 -8
7962 6
7963 2
7964 8
7965 -8
7966 6
7967 14
7968 0
7969 12
7970 -6
7971 6
7972 -12
7973 -12
7974 2
7975 -6
7976 -8
7977 12
7978 -2
7979 2
7980 4
7981 4
7982 -2
7983 -10
7984 4
7985 4
7986 -14
7987 2
7988 -8
7989 4
7990 -6
7991 -2
7992 -8
7993 8
7994 -6
7995 -6
7996 -4
7997 0
7998 -14
7999 -2
8000 6
8001 6
8002 12
8003 12
8004 10
8005 -2
8006 12
8007 8
8008 10
8009 2
8010 -4
8011 -12
8012 -2
8013 -14
8014 12
8015 -8
8016 6
8017 -6
8018 8
8019 12
8020 -14
8021 -14
8022 0
8023 8
8024 6
8025 10
8026 -4
8027 0
8028 -6
8029 2
8030 -4
8031 12
8032 -10
8033 -14
8034 4
8035 0
8036 10
8037 -6
8038 4
8039 12
8040 14
8041 2
8042 0
8043 4
8044 -6
8045 -6
8046 -8
8047 -16
8048 -2
8049 -10
8050 0
8051 -8
8052 10
8053 -2
8054 8
8055 4
8056 -14
8057 -6
8058 0
8059 8
8060 -2
8061 10
8062 8
8063 12
8064 4
8065 -8
8066 10
8067 6
8068 12
8069 -12
8070 6
8071 14
8072 -8
8073 12
8074 10
8075 6
8076 -8
8077 8
8078 -2
8079 -2
8080 -4
8081 -4
8082 -2
8083 6
8084 4
8085 16
8086 -6
8087 -10
8088 4
8089 12
8090 -6
8091 -6
8092 -4
8093 8
8094 6
8095 2
8096 -4
8097 12
8098 2
8099 10
8100 4
8101 8
8102 -2
8103 2
8104 12
8105 -4
8106 6
8107 -2
8108 -12
8109 16
8110 2
8111 -2
8112 -12
8113 8
8114 -2
8115 -6
8116 12
8117 -4
8118 10
8119 -6
8120 -8
8121 -12
8122 -2
8123 2
8124 -8
8125 -8
8126 -14
8127 2
8128 -2
8129 2
8130 -16
8131 -4
8132 -2
8133 -10
8134 12
8135 4
8136 -6
8137 14
8138 0
8139 -4
8140 2
8141 -14
8142 4
8143 4
8144 -6
8145 2
8146 8
8147 8
8148 2
8149 6
8150 -4
8151 0
8152 10
8153 -6
8154 -12
8155 12
8156 2
8157 6
8158 -8
8159 -4
8160 -2
8161 14
8162 0
8163 8
8164 14
8165 2
8166 12
8167 0
8168 6
8169 -10
8170 -12
8171 12
8172 -10
8173 2
8174 0
8175 12
8176 10
8177 -10
8178 0
8179 4
8180 2
8181 10
8182 4
8183 -4
8184 6
8185 10
8186 -16
8187 12
8188 -10
8189 -2
8190 12
8191 -12
8192 0
8193 -2
8194 2
8195 12
8196 -16
8197 -2
8198 2
8199 12
8200 12
8201 -10
8202 -2
8203 4
8204 4
8205 6
8206 14
8207 -4
8208 6
8209 12
8210 -4
8211 -10
8212 14
8213 4
8214 -12
8215 -2
8216 6
8217 0
8218 4
8219 -14
8220 -10
8221 -8
8222 12
8223 2
8224 6
8225 -12
8226 0
8227 2
8228 14
8229 -4
8230 8
8231 -6
8232 -2
8233 0
8234 -8
8235 -2
8236 -2
8237 -8
8238 0
8239 14
8240 12
8241 10
8242 2
8243 -4
8244 4
8245 2
8246 10
8247 4
8248 16
8249 -6
8250 14
8251 -12
8252 -16
8253 2
8254 6
8255 -12
8256 2
8257 -8
8258 -8
8259 10
8260 -6
8261 0
8262 8
8263 -6
8264 2
8265 12
8266 8
8267 -2
8268 10
8269 12
8270 0
8271 -2
8272 -8
8273 14
8274 2
8275 12
8276 0
8277 6
8278 2
8279 -4
8280 -4
8281 -2
8282 -2
8283 -12
8284 4
8285 14
8286 -10
8287 -12
8288 -4
8289 2
8290 -6
8291 -12
8292 4
8293 10
8294 10
8295 -12
8296 0
8297 2
8298 -2
8299 4
8300 8
8301 2
8302 6
8303 -12
8304 10
8305 8
8306 -12
8307 -2
8308 -6
8309 -8
8310 -4
8311 6
8312 10
8313 12
8314 12
8315 -6
8316 -6
8317 4
8318 12
8319 2
8320 -8
8321 6
8322 -6
8323 4
8324 0
8325 -2
8326 2
8327 12
8328 -8
8329 2
8330 -6
8331 0
8332 0
8333 2
8334 10
8335 -8
8336 -6
8337 8
8338 -8
8339 10
8340 10
8341 -8
8342 8
8343 -6
8344 -2
8345 0
8346 4
8347 -6
8348 14
8349 8
8350 -4
8351 10
8352 2
8353 0
8354 -4
8355 -2
8356 -6
8357 8
8358 4
8359 6
8360 14
8361 -16
8362 -8
8363 -2
8364 6
8365 16
8366 8
8367 6
8368 -4
8369 2
8370 10
8371 -4
8372 -12
8373 -6
8374 2
8375 -12
8376 4
8377 -10
8378 -6
8379 8
8380 12
8381 6
8382 10
8383 0
8384 -2
8385 -4
8386 -4
8387 -10
8388 6
8389 -12
8390 12
8391 6
8392 -6
8393 -4
8394 8
8395 6
8396 10
8397 4
8398 -8
8399 -2
8400 8
8401 -2
8402 2
8403 12
8404 0
8405 -10
8406 2
8407 12
8408 -8
8409 -6
8410 -6
8411 0
8412 8
8413 2
8414 10
8415 8
8416 -12
8417 2
8418 -6
8419 -4
8420 -12
8421 -14
8422 -14
8423 -12
8424 -12
8425 14
8426 -6
8427 8
8428 -4
8429 -2
8430 -14
8431 -8
8432 -2
8433 -4
8434 8
8435 -14
8436 6
8437 4
8438 -8
8439 2
8440 10
8441 12
8442 -4
8443 -6
8444 -6
8445 4
8446 12
8447 -14
8448 0
8449 -2
8450 6
8451 -8
8452 12
8453 2
8454 -6
8455 12
8456 8
8457 6
8458 14
8459 8
8460 0
8461 -2
8462 6
8463 -8
8464 4
8465 -2
8466 6
8467 4
8468 8
8469 2
8470 2
8471 -8
8472 4
8473 14
8474 -10
8475 12
8476 -12
8477 6
8478 6
8479 12
8480 2
8481 12
8482 4
8483 10
8484 6
8485 -16
8486 0
8487 -2
8488 14
8489 8
8490 8
8491 -10
8492 14
8493 0
8494 -8
8495 6
8496 -6
8497 -8
8498 8
8499 -14
8500 6
8501 12
8502 -4
8503 -10
8504 -10
8505 -12
8506 12
8507 14
8508 -2
8509 -4
8510 4
8511 -2
8512 -10
8513 12
8514 -8
8515 2
8516 -2
8517 4
8518 0
8519 -14
8520 -10
8521 12
8522 -8
8523 -6
8524 -6
8525 8
8526 4
8527 6
8528 2
8529 -12
8530 -8
8531 -2
8532 10
8533 -12
8534 -16
8535 -10
8536 -6
8537 12
8538 0
8539 -2
8540 -2
8541 16
8542 12
8543 2
8544 -4
8545 -10
8546 2
8547 8
8548 12
8549 -2
8550 2
8551 8
8552 0
8553 10
8554 -2
8555 -4
8556 12
8557 6
8558 2
8559 8
8560 -4
8561 -6
8562 6
8563 16
8564 -4
8565 -6
8566 6
8567 8
8568 -16
8569 -2
8570 2
8571 4
8572 12
8573 -14
8574 -10
8575 -8
8576 -4
8577 6
8578 14
8579 4
8580 8
8581 2
8582 -6
8583 -8
8584 12
8585 6
8586 -2
8587 -4
8588 -4
8589 -2
8590 6
8591 -12
8592 12
8593 -6
8594 2
8595 12
8596 -8
8597 14
8598 -2
8599 -8
8600 -4
8601 -6
8602 2
8603 -12
8604 12
8605 10
8606 10
8607 -12
8608 -14
8609 0
8610 0
8611 -14
8612 -2
8613 4
8614 12
8615 -2
8616 6
8617 -12
8618 -4
8619 -10
8620 -10
8621 4
8622 4
8623 -10
8624 -2
8625 8
8626 0
8627 -2
8628 10
8629 4
8630 -4
8631 2
8632 -6
8633 4
8634 -12
8635 -6
8636 10
8637 12
8638 -4
8639 2
8640 -6
8641 12
8642 8
8643 -10
8644 -6
8645 -12
8646 0
8647 -2
8648 -6
8649 12
8650 -8
8651 14
8652 14
8653 0
8654 12
8655 -6
8656 10
8657 0
8658 4
8659 -10
8660 2
8661 -8
8662 4
8663 14
8664 -6
8665 0
8666 -12
8667 -2
8668 6
8669 4
8670 0
8671 10
8672 4
8673 -14
8674 6
8675 -8
8676 4
8677 2
8678 -2
8679 -8
8680 8
8681 6
8682 2
8683 -4
8684 12
8685 2
8686 6
8687 0
8688 0
8689 -6
8690 -2
8691 -4
8692 -8
8693 -6
8694 -2
8695 12
8696 -4
8697 -10
8698 2
8699 -8
8700 -8
8701 2
8702 -2
8703 -4
8704 0
8705 -6
8706 -2
8707 4
8708 0
8709 2
8710 -6
8711 0
8712 14
8713 -8
8714 -12
8715 -6
8716 6
8717 -8
8718 0
8719 6
8720 6
8721 -12
8722 8
8723 10
8724 2
8725 8
8726 8
8727 -6
8728 0
8729 -10
8730 2
8731 -4
8732 -4
8733 -6
8734 10
8735 4
8736 -6
8737 12
8738 4
8739 2
8740 6
8741 -8
8742 -12
8743 -6
8744 8
8745 2
8746 -6
8747 0
8748 -4
8749 -10
8750 10
8751 -8
8752 12
8753 -6
8754 2
8755 4
8756 -4
8757 -6
8758 14
8759 8
8760 -2
8761 12
8762 -12
8763 -10
8764 -2
8765 12
8766 -8
8767 2
8768 -6
8769 0
8770 4
8771 -2
8772 -10
8773 4
8774 -4
8775 6
8776 -12
8777 2
8778 6
8779 -8
8780 0
8781 -10
8782 6
8783 8
8784 -12
8785 -10
8786 10
8787 -8
8788 12
8789 6
8790 6
8791 -12
8792 -6
8793 -4
8794 16
8795 14
8796 10
8797 -12
8798 12
8799 -6
8800 -12
8801 -6
8802 2
8803 -4
8804 -12
8805 -6
8806 -10
8807 8
8808 14
8809 4
8810 4
8811 14
8812 -2
8813 -12
8814 0
8815 2
8816 2
8817 12
8818 4
8819 -6
8820 -10
8821 16
8822 4
8823 2
8824 0
8825 -14
8826 2
8827 0
8828 12
8829 -2
8830 2
8831 -8
8832 12
8833 6
8834 2
8835 0
8836 8
8837 2
8838 2
8839 -8
8840 6
8841 -16
8842 -4
8843 -6
8844 -6
8845 4
8846 12
8847 2
8848 6
8849 -4
8850 8
8851 -6
8852 6
8853 -4
8854 -12
8855 -2
8856 -12
8857 2
8858 -2
8859 -8
8860 -12
8861 -14
8862 -14
8863 -12
8864 2
8865 -4
8866 4
8867 -14
8868 -14
8869 4
8870 -16
8871 -2
8872 4
8873 -10
8874 -10
8875 -4
8876 -4
8877 6
8878 2
8879 8
8880 -8
8881 6
8882 -2
8883 -8
8884 -12
8885 -6
8886 14
8887 8
8888 6
8889 -12
8890 4
8891 -2
8892 -14
8893 8
8894 12
8895 -10
8896 14
8897 12
8898 8
8899 2
8900 -10
8901 4
8902 -12
8903 6
8904 -12
8905 10
8906 -2
8907 0
8908 -4
8909 2
8910 2
8911 -4
8912 4
8913 6
8914 2
8915 8
8916 0
8917 -14
8918 10
8919 8
8920 -2
8921 0
8922 -12
8923 10
8924 2
8925 4
8926 12
8927 10
8928 4
8929 10
8930 2
8931 -12
8932 -8
8933 6
8934 2
8935 -12
8936 2
8937 -8
8938 0
8939 2
8940 -10
8941 -12
8942 -8
8943 -6
8944 -2
8945 0
8946 -8
8947 14
8948 -2
8949 8
8950 -4
8951 -14
8952 8
8953 2
8954 10
8955 -8
8956 -16
8957 2
8958 -2
8959 -4
8960 0
8961 10
8962 10
8963 -8
8964 0
8965 -6
8966 6
8967 -12
8968 2
8969 0
8970 12
8971 6
8972 -10
8973 4
8974 -12
8975 -2
8976 0
8977 -6
8978 6
8979 4
8980 -12
8981 -10
8982 14
8983 4
8984 10
8985 8
8986 -16
8987 -6
8988 -6
8989 0
8990 12
8991 -2
8992 2
8993 -8
8994 4
8995 -2
8996 -2
8997 4
8998 4
8999 -2
9000 -4
9001 -10
9002 -10
9003 12
9004 -4
9005 6
9006 -14
9007 -8
9008 2
9009 0
9010 0
9011 2
9012 2
9013 8
9014 -4
9015 -10
9016 -4
9017 -2
9018 2
9019 -16
9020 -8
9021 2
9022 -14
9023 8
9024 14
9025 -12
9026 4
9027 -10
9028 -10
9029 4
9030 8
9031 -14
9032 0
9033 -6
9034 6
9035 -12
9036 12
9037 14
9038 6
9039 -4
9040 2
9041 8
9042 4
9043 6
9044 -2
9045 4
9046 -12
9047 6
9048 -4
9049 6
9050 -2
9051 -4
9052 -12
9053 -2
9054 2
9055 0
9056 0
9057 2
9058 14
9059 -4
9060 4
9061 14
9062 6
9063 12
9064 2
9065 -8
9066 -8
9067 2
9068 -6
9069 -8
9070 -4
9071 14
9072 -12
9073 14
9074 -2
9075 -12
9076 12
9077 6
9078 2
9079 8
9080 -10
9081 4
9082 8
9083 10
9084 10
9085 -8
9086 0
9087 2
9088 -16
9089 14
9090 -2
9091 0
9092 -4
9093 -6
9094 -10
9095 -8
9096 2
9097 -12
9098 8
9099 -10
9100 2
9101 4
9102 12
9103 -6
9104 -4
9105 2
9106 14
9107 8
9108 12
9109 -6
9110 2
9111 4
9112 6
9113 0
9114 16
9115 6
9116 -14
9117 4
9118 -8
9119 -10
9120 6
9121 -16
9122 12
9123 -6
9124 6
9125 0
9126 0
9127 -2
9128 -8
9129 -10
9130 14
9131 8
9132 -4
9133 -6
9134 -2
9135 8
9136 2
9137 -4
9138 12
9139 -6
9140 6
9141 -8
9142 -4
9143 2
9144 -12
9145 -14
9146 -2
9147 -8
9148 -12
9149 -6
9150 2
9151 -12
9152 2
9153 12
9154 -4
9155 2
9156 6
9157 -8
9158 12
9159 -6
9160 -12
9161 -14
9162 6
9163 8
9164 12
9165 2
9166 2
9167 12
9168 10
9169 12
9170 -8
9171 -10
9172 2
9173 -12
9174 -12
9175 2
9176 4
9177 -6
9178 -6
9179 4
9180 8
9181 -2
9182 -6
9183 -12
9184 0
9185 6
9186 2
9187 4
9188 -8
9189 -10
9190 -2
9191 -8
9192 -6
9193 4
9194 12
9195 -6
9196 -10
9197 8
9198 4
9199 10
9200 -8
9201 -2
9202 -2
9203 0
9204 -12
9205 -6
9206 -10
9207 -8
9208 2
9209 -4
9210 -8
9211 6
9212 10
9213 -12
9214 -12
9215 2
9216 0
9217 10
9218 2
9219 -4
9220 -8
9221 -14
9222 -6
9223 12
9224 -14
9225 -4
9226 -8
9227 2
9228 2
9229 12
9230 8
9231 -6
9232 -2
9233 12
9234 0
9235 -10
9236 14
9237 4
9238 16
9239 -10
9240 -12
9241 10
9242 10
9243 -8
9244 -12
9245 -14
9246 10
9247 8
9248 -8
9249 6
9250 6
9251 -12
9252 -4
9253 2
9254 2
9255 16
9256 -2
9257 4
9258 -8
9259 -2
9260 10
9261 -8
9262 12
9263 2
9264 -2
9265 -8
9266 4
9267 -10
9268 10
9269 4
9270 -8
9271 -14
9272 0
9273 -6
9274 2
9275 -12
9276 12
9277 6
9278 6
9279 0
9280 12
9281 10
9282 -2
9283 12
9284 4
9285 -14
9286 6
9287 12
9288 -2
9289 -4
9290 12
9291 10
9292 -2
9293 12
9294 12
9295 2
9296 -2
9297 0
9298 8
9299 2
9300 -2
9301 -8
9302 8
9303 2
9304 -12
9305 -2
9306 -6
9307 12
9308 4
9309 -10
9310 -6
9311 -4
9312 0
9313 10
9314 6
9315 0
9316 -12
9317 6
9318 2
9319 12
9320 6
9321 8
9322 0
9323 -14
9324 2
9325 12
9326 4
9327 6
9328 -14
9329 8
9330 -8
9331 6
9332 -2
9333 -12
9334 12
9335 2
9336 4
9337 -6
9338 -2
9339 12
9340 0
9341 6
9342 2
9343 8
9344 -2
9345 4
9346 0
9347 6
9348 6
9349 4
9350 0
9351 6
9352 4
9353 -6
9354 -6
9355 16
9356 -12
9357 2
9358 2
9359 -8
9360 -4
9361 -10
9362 -2
9363 0
9364 12
9365 6
9366 -10
9367 0
9368 -2
9369 0
9370 -12
9371 -2
9372 -2
9373 16
9374 -4
9375 -2
9376 2
9377 -4
9378 8
9379 -14
9380 -2
9381 8
9382 4
9383 6
9384 -12
9385 6
9386 6
9387 -8
9388 -8
9389 -6
9390 -6
9391 4
9392 0
9393 6
9394 -2
9395 -4
9396 -12
9397 2
9398 -14
9399 0
9400 6
9401 -4
9402 16
9403 14
9404 10
9405 -8
9406 4
9407 2
9408 -6
9409 12
9410 -4
9411 14
9412 -14
9413 12
9414 -4
9415 -2
9416 -8
9417 -6
9418 6
9419 8
9420 -8
9421 -14
9422 -2
9423 0
9424 -4
9425 2
9426 -10
9427 -12
9428 -4
9429 2
9430 -2
9431 4
9432 6
9433 -12
9434 -4
9435 2
9436 6
9437 -12
9438 -12
9439 2
9440 10
9441 8
9442 8
9443 6
9444 -10
9445 4
9446 4
9447 -6
9448 4
9449 -6
9450 -10
9451 -4
9452 8
9453 -2
9454 10
9455 -8
9456 4
9457 14
9458 2
9459 4
9460 8
9461 10
9462 6
9463 8
9464 -14
9465 12
9466 -12
9467 -10
9468 6
9469 -8
9470 8
9471 10
9472 0
9473 2
9474 14
9475 8
9476 12
9477 -10
9478 10
9479 -4
9480 -6
9481 -8
9482 -4
9483 -6
9484 2
9485 8
9486 4
9487 10
9488 -4
9489 -2
9490 -14
9491 -4
9492 -8
9493 2
9494 -2
9495 0
9496 -10
9497 4
9498 8
9499 -10
9500 6
9501 -4
9502 8
9503 -2
9504 12
9505 -2
9506 2
9507 12
9508 12
9509 -10
9510 -6
9511 -4
9512 10
9513 -8
9514 -12
9515 2
9516 6
9517 12
9518 8
9519 -2
9520 4
9521 14
9522 2
9523 -12
9524 -4
9525 14
9526 -14
9527 12
9528 -6
9529 0
9530 4
9531 10
9532 -10
9533 4
9534 8
9535 6
9536 -8
9537 6
9538 -2
9539 4
9540 0
9541 14
9542 6
9543 12
9544 6
9545 -8
9546 -8
9547 -6
9548 2
9549 4
9550 -12
9551 -10
9552 -16
9553 6
9554 -2
9555 12
9556 8
9557 14
9558 6
9559 4
9560 -2
9561 8
9562 0
9563 10
9564 2
9565 12
9566 4
9567 -2
9568 -8
9569 -10
9570 6
9571 12
9572 12
9573 10
9574 2
9575 -8
9576 -14
9577 -12
9578 -4
9579 -2
9580 -6
9581 12
9582 -4
9583 14
9584 12
9585 10
9586 2
9587 8
9588 -8
9589 -10
9590 6
9591 -4
9592 14
9593 -16
9594 -8
9595 10
9596 -10
9597 8
9598 -8
9599 -6
9600 -6
9601 -12
9602 4
9603 -2
9604 6
9605 -8
9606 -16
9607 2
9608 -4
9609 2
9610 -6
9611 -8
9612 -12
9613 -14
9614 2
9615 8
9616 -2
9617 -8
9618 0
9619 -6
9620 2
9621 4
9622 -12
9623 -10
9624 0
9625 6
9626 -2
9627 12
9628 -8
9629 6
9630 6
9631 12
9632 2
9633 4
9634 12
9635 -2
9636 -6
9637 4
9638 12
9639 -10
9640 0
9641 -2
9642 -2
9643 4
9644 -12
9645 -6
9646 -6
9647 8
9648 -6
9649 4
9650 12
9651 6
9652 2
9653 -12
9654 12
9655 -2
9656 0
9657 -10
9658 -2
9659 12
9660 -4
9661 -6
9662 2
9663 -8
9664 -2
9665 4
9666 -8
9667 -2
9668 -10
9669 -4
9670 0
9671 -10
9672 -4
9673 6
9674 2
9675 -12
9676 8
9677 2
9678 -2
9679 0
9680 -2
9681 12
9682 0
9683 -2
9684 -2
9685 12
9686 16
9687 -2
9688 -4
9689 14
9690 -14
9691 12
9692 -8
9693 -6
9694 14
9695 -8
9696 2
9697 0
9698 -4
9699 -6
9700 14
9701 12
9702 0
9703 -2
9704 -12
9705 6
9706 10
9707 4
9708 4
9709 6
9710 2
9711 -4
9712 -10
9713 4
9714 8
9715 6
9716 2
9717 0
9718 12
9719 -6
9720 0
9721 -14
9722 6
9723 0
9724 8
9725 -6
9726 6
9727 16
9728 0
9729 -2
9730 10
9731 -8
9732 8
9733 6
9734 6
9735 4
9736 16
9737 -6
9738 6
9739 0
9740 8
9741 10
9742 -14
9743 -12
9744 -14
9745 0
9746 12
9747 2
9748 -10
9749 -4
9750 -4
9751 10
9752 6
9753 8
9754 -4
9755 -10
9756 -6
9757 -4
9758 12
9759 6
9760 -4
9761 -2
9762 -2
9763 -8
9764 4
9765 6
9766 -6
9767 -12
9768 -4
9769 2
9770 2
9771 0
9772 -12
9773 2
9774 -2
9775 4
9776 2
9777 12
9778 12
9779 6
9780 -10
9781 8
9782 -4
9783 14
9784 14
9785 -12
9786 -4
9787 2
9788 2
9789 8
9790 12
9791 2
9792 12
9793 2
9794 -2
9795 12
9796 8
9797 -2
9798 -10
9799 4
9800 -12
9801 6
9802 -6
9803 4
9804 0
9805 -6
9806 2
9807 -12
9808 6
9809 12
9810 -8
9811 -2
9812 6
9813 -12
9814 -4
9815 -6
9816 2
9817 -4
9818 -8
9819 2
9820 -14
9821 12
9822 -4
9823 -10
9824 8
9825 2
9826 2
9827 -4
9828 -12
9829 -2
9830 -6
9831 -12
9832 8
9833 6
9834 -2
9835 -4
9836 4
9837 10
9838 -10
9839 12
9840 14
9841 0
9842 0
9843 -6
9844 -2
9845 -8
9846 -12
9847 -10
9848 -6
9849 -8
9850 8
9851 -2
9852 10
9853 -8
9854 -4
9855 2
9856 -6
9857 -12
9858 -4
9859 -2
9860 14
9861 8
9862 -12
9863 6
9864 -10
9865 12
9866 -4
9867 -6
9868 2
9869 0
9870 12
9871 2
9872 -4
9873 -10
9874 14
9875 8
9876 -12
9877 -10
9878 -14
9879 -12
9880 12
9881 -6
9882 2
9883 0
9884 12
9885 -6
9886 -2
9887 -4
9888 -14
9889 8
9890 4
9891 -6
9892 -2
9893 -12
9894 -12
9895 10
9896 -2
9897 8
9898 12
9899 -10
9900 2
9901 4
9902 4
9903 6
9904 -8
9905 6
9906 -14
9907 -8
9908 -8
9909 -2
9910 14
9911 -4
9912 0
9913 10
9914 6
9915 -8
9916 -8
9917 2
9918 -6
9919 -4
9920 -6
9921 4
9922 -12
9923 14
9924 -6
9925 4
9926 0
9927 -6
9928 -2
9929 4
9930 4
9931 -6
9932 -10
9933 -12
9934 8
9935 -10
9936 -12
9937 -2
9938 -2
9939 0
9940 -16
9941 -14
9942 -2
9943 8
9944 12
9945 -6
9946 2
9947 -8
9948 -16
9949 -2
9950 -6
9951 0
9952 -6
9953 16
9954 4
9955 2
9956 2
9957 8
9958 8
9959 6
9960 -10
9961 16
9962 -12
9963 -10
9964 -10
9965 8
9966 0
9967 10
9968 0
9969 -2
9970 -14
9971 0
9972 4
9973 -6
9974 -6
9975 0
9976 8
9977 2
9978 -2
9979 -8
9980 4
9981 14
9982 -2
9983 8
9984 0
9985 14
9986 -10
9987 -4
9988 -16
9989 -10
9990 -14
9991 8
9992 -8
9993 -2
9994 2
9995 8
9996 -12
9997 -6
9998 10
9999 -8
10000 -4
10001 14
10002 10
10003 -12
10004 -8
10005 2
10006 10
10007 -12
10008 -4
10009 6
10010 -10
10011 0
10012 4
10013 14
10014 2
10015 4
10016 4
10017 -6
10018 6
10019 12
10020 -4
10021 2
10022 -6
10023 8
10024 12
10025 10
10026 2
10027 8
10028 0
10029 6
10030 2
10031 -8
10032 -8
10033 -6
10034 2
10035 -12
10036 -12
10037 -10
10038 -14
10039 12
10040 16
10041 -6
10042 6
10043 -8
10044 8
10045 10
10046 2
10047 4
10048 -8
10049 6
10050 -10
10051 -12
10052 0
10053 -2
10054 2
10055 8
10056 -4
10057 10
10058 6
10059 -4
10060 8
10061 -2
10062 -10
10063 -4
10064 12
10065 6
10066 10
10067 4
10068 8
10069 2
10070 -14
10071 -12
10072 -8
10073 2
10074 10
10075 12
10076 8
10077 10
10078 6
10079 -8
10080 4
10081 2
10082 6
10083 12
10084 -4
10085 -14
10086 2
10087 -8
10088 -8
10089 -10
10090 -10
10091 4
10092 -12
10093 -14
10094 6
10095 -4
10096 0
10097 2
10098 2
10099 -4
10100 -12
10101 14
10102 2
10103 -4
10104 -12
10105 6
10106 -6
10107 12
10108 -4
10109 14
10110 -2
10111 8
10112 6
10113 -12
10114 0
10115 -10
10116 10
10117 -8
10118 -8
10119 -10
10120 14
10121 4
10122 -12
10123 -6
10124 6
10125 4
10126 0
10127 6
10128 2
10129 -12
10130 4
10131 -2
10132 2
10133 4
10134 0
10135 2
10136 -6
10137 4
10138 0
10139 -6
10140 -2
10141 0
10142 0
10143 -6
10144 14
10145 4
10146 12
10147 2
10148 2
10149 0
10150 -12
10151 -6
10152 6
10153 -12
10154 0
10155 6
10156 -2
10157 12
10158 -4
10159 -6
10160 2
10161 4
10162 8
10163 10
10164 -6
10165 4
10166 -4
10167 -2
10168 2
10169 12
10170 -4
10171 -2
10172 14
10173 -8
10174 -12
10175 -2
10176 6
10177 -12
10178 -16
10179 -2
10180 -6
10181 0
10182 16
10183 -2
10184 -6
10185 -8
10186 8
10187 -2
10188 -6
10189 8
10190 -12
10191 -14
10192 -6
10193 -12
10194 -12
10195 -2
10196 2
10197 -12
10198 0
10199 -6
10200 -2
10201 8
10202 4
10203 -10
10204 -14
10205 12
10206 -4
10207 6
10208 -10
10209 4
10210 -4
10211 2
10212 2
10213 0
10214 4
10215 2
10216 -6
10217 -8
10218 4
10219 2
10220 -14
10221 8
10222 8
10223 -10
10224 2
10225 -12
10226 8
10227 2
10228 -6
10229 12
10230 -12
10231 6
10232 -2
10233 0
10234 -16
10235 2
10236 2
10237 12
10238 -8
10239 -6
10240 0
10241 -2
10242 2
10243 12
10244 -6
10245 8
10246 12
10247 -2
10248 -12
10249 10
10250 6
10251 8
10252 2
10253 8
10254 -12
10255 -2
10256 -4
10257 -6
10258 -2
10259 0
10260 -2
10261 -12
10262 -8
10263 10
10264 8
10265 6
10266 -6
10267 -4
10268 -2
10269 -12
10270 8
10271 -6
10272 12
10273 2
10274 6
10275 8
10276 2
10277 8
10278 4
10279 -2
10280 -12
10281 10
10282 -10
10283 8
10284 6
10285 -4
10286 16
10287 10
10288 0
10289 -10
10290 2
10291 12
10292 14
10293 -4
10294 0
10295 10
10296 -8
10297 6
10298 -14
10299 4
10300 2
10301 -8
10302 -4
10303 -2
10304 -8
10305 -6
10306 -10
10307 12
10308 -2
10309 8
10310 4
10311 -6
10312 8
10313 -14
10314 -2
10315 -4
10316 2
10317 4
10318 0
10319 14
10320 0
10321 2
10322 -2
10323 12
10324 -10
10325 8
10326 -12
10327 10
10328 -8
10329 -6
10330 -2
10331 12
10332 2
10333 4
10334 -8
10335 -2
10336 -8
10337 -6
10338 -2
10339 4
10340 2
10341 12
10342 8
10343 -2
10344 4
10345 -10
10346 -6
10347 0
10348 -6
10349 -12
10350 0
10351 -10
10352 0
10353 -14
10354 14
10355 12
10356 -6
10357 -4
10358 0
10359 -10
10360 -4
10361 6
10362 -6
10363 0
10364 2
10365 -4
10366 -8
10367 -10
10368 12
10369 14
10370 6
10371 -4
10372 6
10373 -8
10374 -8
10375 -10
10376 -4
10377 -2
10378 -2
10379 4
10380 -6
10381 12
10382 -12
10383 2
10384 -8
10385 -14
10386 -6
10387 16
10388 2
10389 -12
10390 -12
10391 -6
10392 -16
10393 -14
10394 -6
10395 8
10396 -2
10397 -8
10398 8
10399 6
10400 12
10401 6
10402 -2
10403 -4
10404 -6
10405 -12
10406 -4
10407 2
10408 0
10409 2
10410 -14
10411 -8
10412 10
10413 -4
10414 -4
10415 -6
10416 8
10417 10
10418 -6
10419 -8
10420 -10
10421 0
10422 -16
10423 -2
10424 12
10425 14
10426 14
10427 12
10428 -10
10429 16
10430 0
10431 -2
10432 0
10433 -2
10434 -2
10435 -8
10436 -10
10437 -4
10438 4
10439 -2
10440 -4
10441 -6
10442 -6
10443 4
10444 6
10445 -4
10446 4
10447 -2
10448 -8
10449 -2
10450 14
10451 -8
10452 6
10453 -4
10454 -12
10455 6
10456 -4
10457 -6
10458 2
10459 -12
10460 -2
10461 -4
10462 -4
10463 6
10464 12
10465 -6
10466 2
10467 12
10468 14
10469 -12
10470 12
10471 -10
10472 -12
10473 10
10474 2
10475 -12
10476 -14
10477 0
10478 8
10479 -6
10480 -4
10481 -14
10482 2
10483 12
10484 -10
10485 12
10486 12
10487 -2
10488 4
10489 10
10490 2
10491 -4
10492 -6
10493 0
10494 -8
10495 -6
10496 0
10497 6
10498 -6
10499 -12
10500 -2
10501 4
10502 8
10503 -14
10504 -12
10505 14
10506 -2
10507 4
10508 2
10509 -4
10510 -4
10511 2
10512 6
10513 0
10514 8
10515 -10
10516 -12
10517 -2
10518 -2
10519 12
10520 -2
10521 12
10522 -8
10523 2
10524 -4
10525 10
10526 -2
10527 8
10528 -8
10529 -6
10530 6
10531 -4
10532 2
10533 -4
10534 8
10535 6
10536 -8
10537 -2
10538 6
10539 -8
10540 10
10541 -8
10542 0
10543 -6
10544 -14
10545 -8
10546 -8
10547 2
10548 4
10549 -14
10550 10
10551 12
10552 -2
10553 8
10554 12
10555 2
10556 8
10557 -6
10558 6
10559 4
10560 12
10561 6
10562 10
10563 0
10564 -6
10565 4
10566 0
10567 6
10568 -8
10569 14
10570 -2
10571 -8
10572 -2
10573 -12
10574 -4
10575 6
10576 -2
10577 -12
10578 -4
10579 14
10580 -12
10581 10
10582 2
10583 -12
10584 14
10585 -16
10586 -4
10587 -14
10588 12
10589 14
10590 -6
10591 0
10592 0
10593 6
10594 -6
10595 12
10596 10
10597 -8
10598 -12
10599 14
10600 8
10601 -6
10602 -6
10603 0
10604 2
10605 -4
10606 4
10607 2
10608 6
10609 8
10610 0
10611 -2
10612 0
10613 -6
10614 2
10615 -8
10616 10
10617 8
10618 4
10619 -10
10620 -12
10621 -6
10622 -10
10623 0
10624 -8
10625 -2
10626 6
10627 16
10628 6
10629 -12
10630 -12
10631 6
10632 4
10633 -10
10634 -6
10635 -8
10636 -14
10637 -4
10638 -8
10639 -2
10640 6
10641 8
10642 -12
10643 10
10644 4
10645 -2
10646 -6
10647 8
10648 -2
10649 12
10650 12
10651 6
10652 -4
10653 2
10654 2
10655 4
10656 -4
10657 6
10658 -2
10659 12
10660 -2
10661 8
10662 -8
10663 6
10664 -12
10665 -6
10666 -2
10667 16
10668 -2
10669 4
10670 0
10671 2
10672 6
10673 12
10674 -8
10675 2
10676 0
10677 -10
10678 2
10679 -4
10680 -14
10681 -12
10682 4
10683 2
10684 4
10685 6
10686 6
10687 -12
10688 4
10689 14
10690 -10
10691 12
10692 -14
10693 -12
10694 -4
10695 -6
10696 -8
10697 -10
10698 -6
10699 -4
10700 -2
10701 -12
10702 -8
10703 -14
10704 -2
10705 -4
10706 8
10707 2
10708 -12
10709 -6
10710 14
10711 0
10712 -2
10713 0
10714 -16
10715 -10
10716 -4
10717 -10
10718 -2
10719 -4
10720 -12
10721 2
10722 2
10723 12
10724 -10
10725 -12
10726 -12
10727 -2
10728 4
10729 -10
10730 2
10731 8
10732 6
10733 -8
10734 4
10735 10
10736 10
10737 -4
10738 -16
10739 -2
10740 12
10741 -2
10742 10
10743 8
10744 -2
10745 4
10746 12
10747 -10
10748 0
10749 6
10750 -10
10751 0
10752 0
10753 2
10754 14
10755 -12
10756 -6
10757 -12
10758 -12
10759 2
10760 10
10761 0
10762 8
10763 2
10764 0
10765 6
10766 10
10767 4
10768 -4
10769 2
10770 -14
10771 -12
10772 -14
10773 8
10774 -12
10775 6
10776 -2
10777 0
10778 -12
10779 2
10780 -8
10781 2
10782 -6
10783 16
10784 4
10785 14
10786 -10
10787 12
10788 6
10789 0
10790 4
10791 -6
10792 -2
10793 4
10794 8
10795 -6
10796 -12
10797 2
10798 -6
10799 4
10800 4
10801 2
10802 -10
10803 8
10804 2
10805 8
10806 0
10807 -6
10808 -2
10809 0
10810 -8
10811 -2
10812 8
10813 10
10814 -2
10815 4
10816 4
10817 -10
10818 14
10819 4
10820 -2
10821 16
10822 4
10823 -6
10824 2
10825 -8
10826 4
10827 -2
10828 8
10829 6
10830 6
10831 8
10832 8
10833 -2
10834 -14
10835 4
10836 14
10837 -4
10838 4
10839 -2
10840 -2
10841 0
10842 16
10843 -2
10844 8
10845 10
10846 6
10847 4
10848 -8
10849 2
10850 -2
10851 -12
10852 2
10853 4
10854 -12
10855 2
10856 6
10857 12
10858 12
10859 -2
10860 -12
10861 -6
10862 -10
10863 8
10864 8
10865 6
10866 -10
10867 8
10868 -2
10869 12
10870 8
10871 -6
10872 6
10873 8
10874 4
10875 10
10876 8
10877 2
10878 -14
10879 0
10880 -4
10881 -6
10882 10
10883 -4
10884 -6
10885 -8
10886 4
10887 6
10888 -6
10889 -12
10890 -8
10891 6
10892 12
10893 -2
10894 -10
10895 12
10896 -8
10897 -14
10898 6
10899 12
10900 2
10901 -12
10902 -4
10903 -6
10904 6
10905 4
10906 -12
10907 14
10908 12
10909 -6
10910 -10
10911 0
10912 -4
10913 10
10914 -2
10915 8
10916 -6
10917 0
10918 8
10919 -6
10920 2
10921 4
10922 12
10923 10
10924 12
10925 -2
10926 2
10927 0
10928 12
10929 6
10930 -10
10931 -12
10932 -10
10933 0
10934 -4
10935 10
10936 -6
10937 -16
10938 -4
10939 6
10940 8
10941 6
10942 6
10943 -8
10944 -8
10945 -2
10946 10
10947 4
10948 14
10949 12
10950 12
10951 -2
10952 2
10953 -12
10954 -4
10955 2
10956 -4
10957 14
10958 -14
10959 -8
10960 12
10961 -2
10962 -10
10963 -12
10964 -2
10965 0
10966 -12
10967 -14
10968 -10
10969 -4
10970 -8
10971 -6
10972 4
10973 2
10974 2
10975 12
10976 8
10977 -2
10978 -10
10979 8
10980 6
10981 12
10982 0
10983 2
10984 10
10985 -12
10986 -8
10987 -2
10988 4
10989 6
10990 -2
10991 -4
10992 8
10993 -6
10994 6
10995 -4
10996 2
10997 -4
10998 12
10999 -6
11000 -14
11001 0
11002 0
11003 2
11004 -16
11005 14
11006 10
11007 12
11008 0
11009 10
11010 -2
11011 -12
11012 -6
11013 12
11014 12
11015 -14
11016 -6
11017 4
11018 -16
11019 14
11020 -12
11021 -2
11022 -2
11023 -12
11024 10
11025 4
11026 8
11027 -2
11028 0
11029 2
11030 2
11031 -8
11032 16
11033 -6
11034 14
11035 -4
11036 14
11037 8
11038 0
11039 6
11040 -4
11041 -6
11042 -14
11043 4
11044 -2
11045 4
11046 -8
11047 10
11048 -2
11049 -4
11050 -4
11051 6
11052 8
11053 6
11054 -6
11055 12
11056 -10
11057 4
11058 -4
11059 -2
11060 12
11061 2
11062 -10
11063 8
11064 -4
11065 10
11066 2
11067 -4
11068 2
11069 0
11070 12
11071 14
11072 8
11073 2
11074 -14
11075 8
11076 -2
11077 0
11078 -4
11079 2
11080 2
11081 -12
11082 12
11083 -14
11084 0
11085 2
11086 -2
11087 12
11088 2
11089 -12
11090 12
11091 10
11092 4
11093 -2
11094 2
11095 0
11096 8
11097 2
11098 10
11099 8
11100 -6
11101 -12
11102 0
11103 6
11104 12
11105 2
11106 14
11107 8
11108 10
11109 8
11110 0
11111 -6
11112 6
11113 4
11114 -8
11115 2
11116 4
11117 -14
11118 -6
11119 -4
11120 6
11121 -12
11122 -8
11123 10
11124 8
11125 -2
11126 -2
11127 0
11128 -12
11129 10
11130 -2
11131 0
11132 -2
11133 -12
11134 12
11135 6
11136 0
11137 -6
11138 -6
11139 -8
11140 -10
11141 8
11142 -4
11143 10
11144 -6
11145 12
11146 -4
11147 -6
11148 8
11149 -6
11150 6
11151 12
11152 -6
11153 12
11154 -4
11155 2
11156 4
11157 14
11158 -14
11159 -8
11160 0
11161 -6
11162 2
11163 -8
11164 10
11165 -12
11166 -8
11167 -10
11168 -8
11169 -10
11170 -6
11171 -12
11172 -2
11173 4
11174 -4
11175 6
11176 2
11177 8
11178 -4
11179 -10
11180 8
11181 -2
11182 -2
11183 0
11184 -14
11185 8
11186 12
11187 -2
11188 -12
11189 -14
11190 -6
11191 12
11192 0
11193 -2
11194 -6
11195 12
11196 10
11197 8
11198 0
11199 -6
11200 12
11201 6
11202 2
11203 -16
11204 -10
11205 -8
11206 -8
11207 6
11208 -2
11209 -8
11210 -12
11211 -6
11212 8
11213 2
11214 -6
11215 8
11216 6
11217 16
11218 -12
11219 2
11220 -12
11221 6
11222 -2
11223 -4
11224 4
11225 -2
11226 -6
11227 -16
11228 -6
11229 4
11230 12
11231 10
11232 4
11233 -6
11234 2
11235 4
11236 -2
11237 12
11238 8
11239 10
11240 14
11241 4
11242 -4
11243 6
11244 0
11245 6
11246 -6
11247 12
11248 -2
11249 4
11250 4
11251 -10
11252 4
11253 2
11254 -10
11255 -8
11256 -4
11257 2
11258 10
11259 4
11260 2
11261 8
11262 12
11263 14
11264 0
11265 14
11266 2
11267 8
11268 14
11269 -12
11270 -8
11271 -10
11272 6
11273 0
11274 12
11275 14
11276 8
11277 2
11278 -2
11279 0
11280 -4
11281 -2
11282 10
11283 -4
11284 -14
11285 12
11286 0
11287 -6
11288 2
11289 -8
11290 -4
11291 2
11292 4
11293 -6
11294 -10
11295 12
11296 -2
11297 8
11298 -4
11299 -10
11300 -4
11301 6
11302 -14
11303 -4
11304 0
11305 -2
11306 2
11307 0
11308 -6
11309 0
11310 -4
11311 -14
11312 10
11313 8
11314 12
11315 2
11316 8
11317 -10
11318 -6
11319 0
11320 4
11321 -2
11322 -14
11323 4
11324 6
11325 -8
11326 -4
11327 6
11328 10
11329 0
11330 -4
11331 -14
11332 4
11333 -6
11334 -2
11335 -12
11336 8
11337 2
11338 -2
11339 8
11340 -2
11341 0
11342 -12
11343 6
11344 -10
11345 -8
11346 12
11347 6
11348 8
11349 -6
11350 -2
11351 -8
11352 -12
11353 2
11354 6
11355 12
11356 -6
11357 0
11358 -12
11359 2
11360 4
11361 -10
11362 -6
11363 -12
11364 14
11365 -8
11366 -4
11367 -2
11368 -2
11369 -4
11370 8
11371 -2
11372 12
11373 10
11374 6
11375 12
11376 8
11377 6
11378 -6
11379 8
